1627 128
Cross-talk_edgelists1_P24928.edgelist__2249281810 0.00154503913862 -0.00183316386704 0.00184590409377 -0.000242470796885 0.00325740394848 -0.00171237598572 -0.00109355617315 -0.00652614714844 0.0109418705106 0.00413616400744 0.00297533161938 -0.00540894429599 0.0026824599398 0.000585425112929 0.00134904828987 -0.00267621262797 -0.00236253041242 -0.0108017729861 0.00296564666288 -0.00733799593789 0.000452207334872 -0.00415985126581 -0.00678069463798 0.00163791035967 0.00168838990586 0.00860867702535 -0.00465997468148 -0.00363264286092 -0.00721483943718 0.0051564866943 -0.00126737209835 -0.0142160270895 -0.00409158372453 0.00454359874129 5.01264127836e-05 -0.00647992321423 0.000218900835275 -0.0116204917431 0.00795528186219 0.00351266988686 -0.00623650955302 -0.000653321987816 0.00804097258619 4.88395536585e-05 0.00461492527808 0.00345600316567 -0.0017134279811 0.00759035881077 0.0121616604073 -0.00375819924687 6.75752941918e-05 -0.00245446445686 0.000998331899089 0.00109757117129 -0.0129329615406 -0.000918745861522 0.0184897375958 -0.00031365061711 -1.91792538057e-05 -0.015675271196 -0.00650835143668 0.012711532414 -0.00773044036967 0.00596108287573 -0.00484068212765 0.00632081500122 -0.00627414190343 0.00494115533573 -0.00273085704872 0.000205433727907 -0.00597776898316 0.00324150840087 -0.00353032802897 0.00868022654738 0.00507794160928 0.010144927672 0.00722069719008 -0.0126235325422 0.00799182376691 0.00227481126785 0.000848354505641 0.00697009265423 0.0144955100758 9.77568561211e-05 0.00203935629023 -0.00594055705837 0.00469371782882 -0.00191528656121 0.00486205890775 0.00694095556225 0.00497965088912 0.00570610804217 0.00177164668483 -0.000517228185864 0.00693164446524 -0.00255262718669 0.00577012289848 0.00471724623016 -0.00956035937582 0.000476864998096 0.00564909034542 -0.00281630802367 -0.00673445101295 -0.00264202324407 -0.00499820389918 -0.0104148473058 -0.00513260332601 -0.00162628692176 -0.00889057240316 -0.0105454602412 -0.0189314399447 0.00139649651412 -0.000494655022132 -0.0048710017332 -0.00140230171382 0.000232424919627 -0.000777855448957 0.0063607133925 -0.00591159345848 0.0069193392992 0.00336535647511 0.00889420722212 0.002734599635 0.00528742106897 0.00511103762048 0.00428796479745 0.001233048604 -0.00520080115114
Cross-talk_edgelists1_P24928.edgelist__2249281805 0.00193422607013 -0.00216588737177 0.00169889256358 -0.000652751685785 0.00359867699444 -0.00155892449298 -0.000684476524059 -0.00641319155693 0.0106874927878 0.00453182150211 0.00309071982546 -0.00543187186122 0.00262292368071 0.000181499669062 0.00100369232574 -0.00274390966765 -0.00276655198208 -0.0108210189002 0.00333512920354 -0.00795149537069 0.000449373952246 -0.00380871977125 -0.00688485907657 0.00150805219476 0.00166499747762 0.00861540064216 -0.00384567624756 -0.00363752378949 -0.00707326829433 0.00482343775885 -0.00141780397722 -0.0147055802601 -0.00358061652098 0.00469524466566 -0.000168115648973 -0.00639599029507 0.000178890901485 -0.0121228109513 0.0080398209393 0.00369117967784 -0.00595026569707 -0.000810016345765 0.00835178898914 0.000359455589205 0.00511803424784 0.0039348394743 -0.00188615372671 0.00688856786915 0.0117167245064 -0.00362048830305 -7.54903552921e-05 -0.00279552063772 0.00117953480887 0.00099321095539 -0.0124683795231 -0.000972972783659 0.018221244216 -0.000201083087761 0.000213053443336 -0.0154366024903 -0.00652058156473 0.0124196814639 -0.00770359167031 0.00631813545312 -0.00515317012157 0.00620176004512 -0.00616797166211 0.00496787524649 -0.00282984572862 0.000274301373533 -0.00554536921637 0.00319876069469 -0.00382206562374 0.00829835448946 0.00522424174207 0.00994848353522 0.00682473395552 -0.0126815991742 0.00823063988771 0.00300787096577 0.000754047517798 0.00678448166166 0.0147181632263 -7.01197173579e-05 0.00184392596462 -0.00600507589323 0.0044912344643 -0.00201420379536 0.00449802194323 0.00634643275823 0.0050876837756 0.00625727059586 0.0013828087332 -0.000553039368242 0.00674685410091 -0.00257632375828 0.00542076783521 0.00468433967658 -0.00922083428928 0.00154324314956 0.00564477007304 -0.00302216676729 -0.00679895441447 -0.00317783600518 -0.0054003830467 -0.0109455234238 -0.00492433192475 -0.00178966218872 -0.00915105428014 -0.0102313565356 -0.0186460209744 0.00147450369384 -0.000467066952427 -0.00482470808285 -0.00163721226688 0.000608429379229 -0.00111454765179 0.00674188030618 -0.0055218828576 0.00685413075345 0.00400260942323 0.00845008077366 0.00200704525092 0.00532218122057 0.00501996651292 0.00359945451575 0.00146536382713 -0.00443196243473
Cross-talk_edgelists1_P24928.edgelist__2249281618 0.00148133880326 -0.00217591532107 0.0024171261383 -0.000829208708767 0.0038218258747 -0.00218635757587 -0.000293703217592 -0.00700131111911 0.009949631989 0.00436718256346 0.00288685331387 -0.00540927371808 0.00223229905324 0.0008988911286 0.00261204077729 -0.00279961340129 -0.00240469537675 -0.010626057429 0.00309139490128 -0.0080956247236 -8.51604522073e-05 -0.00459329304951 -0.00633573851415 0.00201432366988 0.00229932899986 0.00828416858401 -0.0043198804238 -0.00372862656202 -0.00683225425226 0.00484501517245 -0.00107009090217 -0.0140560450298 -0.00404110071915 0.00460109646831 -0.000103853767671 -0.0068199836782 0.000611565874091 -0.0114531069994 0.00823395060641 0.00291727509882 -0.00615942424961 -0.000851670147053 0.00772340542504 0.000139902927913 0.00428948391761 0.00361739498164 -0.00233448589487 0.00725339140211 0.0120278777821 -0.00441780367068 -5.91855121976e-05 -0.00215808634779 0.00110545122464 0.000292796708111 -0.0124463587999 -0.00190688390285 0.0177712951388 -0.000639161826777 0.000136214682633 -0.0151918498533 -0.00650133884379 0.0123885135565 -0.00813085851925 0.0061312834067 -0.00501465690987 0.00674961347665 -0.00609237541045 0.00501591180052 -0.00225364416838 0.000480978516862 -0.00607430775251 0.00353678874671 -0.00220235902816 0.00950716861657 0.00472695486886 0.00868050700852 0.00693184829184 -0.0131615283234 0.00752450738634 0.0017097618963 -0.000300763407722 0.00729430254017 0.0145809842008 -0.000516673649794 0.000709451402404 -0.00600744890315 0.00464545296771 -0.00196801219136 0.00398219270366 0.00631196956549 0.00489347747394 0.00593615642616 0.002369264939 -0.000700500926801 0.00746657699347 -0.00291859039239 0.00560457631946 0.00427902277027 -0.0096158342702 0.000526772645701 0.00535635543721 -0.00274844627295 -0.00632165638464 -0.00184630748949 -0.00432020479015 -0.00969940423965 -0.0060837822301 -0.00183825447623 -0.00844839108842 -0.0100495879139 -0.0186349685703 0.00149768018829 -0.00141432628568 -0.00437430638288 -0.00189034281565 0.000639244714486 -0.00124045940382 0.00603685581258 -0.00614407924669 0.00663029668587 0.00374796560832 0.00892239542944 0.00235919202013 0.00548746223961 0.00484552127974 0.00400957704655 0.00147298324321 -0.00466917721289
Cross-talk_edgelists1_P24928.edgelist__2249281878 0.00149769149721 -0.00230227836541 0.00182534727667 -0.00109073074002 0.0032504381878 -0.00208274354892 -0.00151795880603 -0.00677136757544 0.0104915946722 0.00470575796706 0.00263179226645 -0.00566327731524 0.00227310269007 0.000739601573774 0.00194232352078 -0.00242506393364 -0.00236471529518 -0.0114019523774 0.00321807180132 -0.00743531116417 -3.69976623915e-05 -0.00432212570948 -0.00680012202689 0.00169196365667 0.00171269875552 0.00855571244444 -0.00483792062317 -0.00373742410115 -0.00713740927832 0.00482162886432 -0.00114015276943 -0.0149642686759 -0.00409626322133 0.00526131476675 -0.000248987344094 -0.00683635366814 0.00049890158698 -0.0125869757363 0.00809767416545 0.00375514291227 -0.00667669570872 -0.00108505120235 0.00764773786068 -8.29290469743e-06 0.00494378326195 0.00329232189272 -0.0020215681621 0.0077571001436 0.011595970818 -0.00391161095883 -0.000152688789448 -0.00249211064407 0.001468804931 0.000816317740828 -0.0126211696437 -0.00127536430955 0.0187974359308 -0.000188765265713 -0.000754723857556 -0.0157473587564 -0.006430378982 0.0123955586127 -0.00782585889101 0.0065191904349 -0.00514588717903 0.00609422368663 -0.00672912544438 0.00536158840571 -0.00272431543895 -0.000335324056713 -0.00570620011006 0.00264813538109 -0.0035317465663 0.00854138391359 0.0049538128078 0.0099821676101 0.00647151044437 -0.0131379504289 0.00837866216898 0.00193012013499 0.00117687827774 0.00671751052141 0.0147529223136 -0.000109441553442 0.00142882272069 -0.00639880661454 0.00424227038664 -0.00169508478471 0.00499750567334 0.0066954482879 0.00471760598677 0.00569107862456 0.00145476005439 -0.000479878558378 0.00679807843907 -0.00255192284073 0.00580622255802 0.00452656298876 -0.00940264761448 0.000658638509256 0.00547489683543 -0.00289034391088 -0.00687539950013 -0.00220607580351 -0.00533575724278 -0.0103210349168 -0.00527780556253 -0.00224921453212 -0.00913452995675 -0.0106374440449 -0.0193390292781 0.00167119330061 -0.000654535833746 -0.0045170464686 -0.00156928186438 0.000858252335872 -0.000881779739367 0.00656378428851 -0.00650266664369 0.00684578716755 0.00351245275566 0.00881789092507 0.00269140409572 0.00475188131843 0.00543068030051 0.00363391797457 0.00103572390175 -0.0051341354847
Cross-talk_edgelists1_P24928.edgelist__2249281616 0.00174341763237 -0.00228574632534 0.00176619964519 -0.000948953575322 0.00346929180835 -0.00177671281355 -0.000690420091684 -0.00679241014378 0.00998255184719 0.00467209251864 0.00276679944779 -0.0052222912865 0.00277387563671 0.000406755034679 0.0017077755183 -0.00232903313424 -0.00229167139956 -0.0107920978751 0.00375809467265 -0.007885605629 6.49873940607e-05 -0.00388759507665 -0.00687250707831 0.0016743942563 0.00200776662678 0.00838549115828 -0.0036337066974 -0.00337333817567 -0.00714383700064 0.00472107636077 -0.00143598485738 -0.0149703834738 -0.00373041363699 0.00482509178775 -0.000374412164092 -0.00650478473731 0.000277765427849 -0.0124495540346 0.00782307077731 0.00340811881636 -0.00619873031974 -0.00115242666964 0.00815649490271 -0.000509737591658 0.00484782457352 0.00380574565913 -0.00212598685175 0.00689227825829 0.0113501612629 -0.00349014172597 -0.000271752160708 -0.0027219469526 0.00131869329406 0.000698301874633 -0.0119329967669 -0.00142729614994 0.0181883956705 -0.000101026264019 -0.000289211748168 -0.0152873620391 -0.00627028569579 0.0118443667889 -0.0075562261045 0.00709355090346 -0.0053933060595 0.00604258956654 -0.00598225849015 0.00482912787369 -0.00261603881206 9.66615875119e-05 -0.0056490264833 0.00278100823717 -0.0030075508569 0.00846157808389 0.00490547876273 0.0096373845424 0.00623438507318 -0.0127278151257 0.00816344363349 0.00265066911067 0.000534586342318 0.00639574336154 0.01500331504 -0.000187358602748 0.00131120639188 -0.00593296491674 0.00418785826436 -0.00171231252274 0.00448184566838 0.00630376700844 0.00505577347108 0.00605224126152 0.00114415359816 -0.000797580861087 0.00707638370139 -0.00277699876044 0.00522516667843 0.00496057261314 -0.00921654701233 0.00119678250381 0.00515104936702 -0.00265644410891 -0.00619431052889 -0.0026522981269 -0.00549455199923 -0.0104600755232 -0.00519437342882 -0.00179482078446 -0.00877833472831 -0.00990379388843 -0.0187865665981 0.00110083226381 -0.000790925097785 -0.00459344365767 -0.00198025722057 0.00112214005951 -0.00132054941995 0.00648299338562 -0.00575553998351 0.00615738438708 0.00395011023751 0.00793017979179 0.00204830763063 0.00484335103205 0.005014510027 0.00334103724786 0.00114303947027 -0.0045971609652
Cross-talk_edgelists1_P24928.edgelist__2249281621 0.00150769975569 -0.00257849028068 0.00175022905959 -0.000561128703079 0.00317167570548 -0.00217614934913 -0.00188684742898 -0.0061092376709 0.0106355963009 0.00440916099719 0.00252033450774 -0.00545491384608 0.00146691993411 0.000201560440473 0.00146674045495 -0.00283068604767 -0.00350535527936 -0.0113920207535 0.00265605481608 -0.0076432275985 -0.000325605439554 -0.00429945625365 -0.0057082330542 0.00118109530636 0.000980668767755 0.00821361850415 -0.00424220971763 -0.00348634432469 -0.00633721905095 0.00406848213502 -0.0010300190188 -0.0137700406568 -0.00295706731933 0.00485090059893 0.000157660887843 -0.00653653698308 0.000846264019076 -0.0120274424553 0.00763425071325 0.00396962197764 -0.00555606771793 -0.000235481287486 0.00777997395822 0.00141350618963 0.00493363344244 0.00418238448245 -0.0024436847972 0.00728967892272 0.0112957369004 -0.00409607269934 -0.000436223012262 -0.00267573206552 0.00103956580694 0.000839737576566 -0.012009596186 -0.00094862694719 0.0175871135933 0.000166410048093 -0.000687450103994 -0.0153214558959 -0.00621745895062 0.011728462364 -0.00859900351082 0.00484197267464 -0.00476039094584 0.00619023133601 -0.00664015433618 0.00576597611819 -0.00220319881503 -8.23104221906e-05 -0.00521112605929 0.00317088621003 -0.00440749845334 0.00767547796879 0.00510068131345 0.00915557465383 0.00681846269539 -0.0126089017306 0.00748546261873 0.00216802928065 0.0012186639277 0.0075943001679 0.0134614695396 -0.000643147355212 0.00173477110054 -0.00645998758929 0.00406299425023 -0.00237480125257 0.00463965748038 0.00580192250865 0.00460786691734 0.00538753824575 0.00229673699609 0.000331399097506 0.00539138540626 -0.00226386636496 0.00557993405632 0.00370927288064 -0.00908953270742 0.00111799540796 0.00595321665917 -0.0031082340117 -0.00649940435375 -0.00226929118591 -0.00408280507794 -0.0103699181761 -0.00522019128714 -0.00207845148231 -0.00909946646009 -0.00993681592601 -0.0185038021633 0.00229846712734 -0.000430259321417 -0.00478039788348 -0.00154260439532 0.000215980240942 -0.000815959979913 0.00639202818274 -0.00635095206755 0.00732951877373 0.00312189757824 0.00931191231523 0.00255979091993 0.00490607693791 0.00470651845847 0.00350815696376 0.00139769419496 -0.00465781614184
Cross-talk_edgelists1_P24928.edgelist__2249281615 0.0023041633623 -0.00219842844776 0.0015378881778 -0.00115263062928 0.00430116749236 -0.001873292295 -0.000394226484267 -0.00633902634893 0.010298322354 0.00414469784924 0.00321148708463 -0.0052048026451 0.00282660525824 0.000276713116494 0.00156045079763 -0.0029019162591 -0.00273684731552 -0.0103991382888 0.00315437838435 -0.0084504969418 2.63820797305e-05 -0.00463209780199 -0.00711442051189 0.00179774260947 0.00194534300161 0.00856827252678 -0.003662686795 -0.00328946193414 -0.00681572247829 0.00497613740819 -0.00145035503166 -0.0147990754672 -0.00364819514964 0.00435658650739 -0.000396476526346 -0.00636161544493 0.000264167702491 -0.0119676558035 0.00765553861856 0.00310663958745 -0.00574387503522 -0.000416379122596 0.00857478965606 0.000225367041172 0.00482696294785 0.00396630088133 -0.00218611902424 0.0070712422686 0.0120456708329 -0.00371235369572 -9.18618253698e-05 -0.00306000906442 0.000860523299447 0.00176977579083 -0.0121212686811 -0.000993018969893 0.0178902213063 -0.000307998187574 0.000291674464409 -0.0157261905926 -0.00625877987061 0.0119782526578 -0.0078197095011 0.00679257618529 -0.00563700124621 0.00609022698232 -0.00592184971486 0.00451656909926 -0.00240670596915 0.000687596055546 -0.00550694550787 0.0029596319156 -0.00293257459998 0.00882397219539 0.00508888278689 0.0100637025067 0.00700795277953 -0.0127945425255 0.00778622339879 0.00361838644104 -0.000113503566744 0.00695724199925 0.0146720739348 4.21804933077e-05 0.00164065909173 -0.00556966130223 0.00417440810374 -0.00196546103273 0.00447095185518 0.00643415749073 0.00514960927623 0.00666736971055 0.00129502639174 -0.000998455232808 0.00748469680548 -0.00227740912565 0.00569622804012 0.00512609258294 -0.00951084920338 0.0016782145415 0.00552069289344 -0.00250784547201 -0.0065024692033 -0.00297098713262 -0.00504296592304 -0.0109641488109 -0.0052669399551 -0.00142538041941 -0.00906646251678 -0.00996214896441 -0.0188176546778 0.0012512096603 -0.000250745614591 -0.00462079527123 -0.00159852459495 0.000512524175325 -0.0015252236543 0.00687365659646 -0.00503629339593 0.00631741008588 0.00418017485312 0.00842065523778 0.00164814040597 0.00574892546449 0.00498932174274 0.00343981119139 0.00154932934259 -0.00455578735897
Cross-talk_edgelists1_P24928.edgelist__2249281807 0.00123003271541 -0.00231405294367 0.00186905451119 0.000413454869496 0.00396461811449 -0.00142632012389 -1.85153122792e-05 -0.00655630869525 0.0104526366506 0.00419336983136 0.00304912057306 -0.00481009430119 0.00265980538513 0.000386845719601 0.001703539198 -0.00280670422528 -0.00315436082227 -0.0105141912188 0.00365248349096 -0.00781760684081 0.000603718882693 -0.00356457781579 -0.00616626973663 0.00181008516146 0.00185752500381 0.0084815078548 -0.00339028984308 -0.00303778690951 -0.00696557919894 0.004464764148 -0.00102447518813 -0.0141467643636 -0.00360272585281 0.00404191336461 -0.000136888294946 -0.00654070717948 0.000716610745128 -0.0112462969763 0.0081115242626 0.00311573115843 -0.00564633203404 -5.45550719835e-05 0.00832258537412 -0.000382685534922 0.00451422323074 0.00427478072899 -0.00264299208564 0.00676932984165 0.0118638042893 -0.00314143087183 -0.000755121731865 -0.00246962878321 0.000603954307735 0.000214609783143 -0.011668992894 -0.00109042726191 0.0180854712214 -0.000350396647783 0.000330591341481 -0.0154172054359 -0.00606572095837 0.0118839836546 -0.00851303605097 0.00576753488609 -0.0048725094114 0.00677832535335 -0.00562407608543 0.00489266163536 -0.00230099473681 0.000618670667921 -0.00597402613078 0.00402776284942 -0.00322494363146 0.0084395217044 0.00548077960099 0.00850004064185 0.00740117313606 -0.0124785176345 0.00782301755888 0.00238333988403 0.000355231708714 0.00737659899252 0.014050152685 -0.000570851511189 0.0015133464975 -0.00584297254682 0.00435654685966 -0.00179770841662 0.004950077406 0.00572104219879 0.00502839950579 0.00634653014796 0.00222395280642 -0.000525191592585 0.00634653174451 -0.00288721732795 0.00502854053463 0.00527364973511 -0.00949763719525 0.000812886282802 0.00529865920544 -0.00278640937592 -0.00596446969679 -0.0024423538042 -0.00456917179482 -0.0106970423034 -0.00593019010765 -0.00183583569846 -0.00894309048142 -0.00994515738317 -0.0186370100294 0.000884484965354 -0.00105390418321 -0.00485200860671 -0.00196666616414 0.000174733793496 -0.000733032223902 0.00571544787713 -0.00619946260537 0.00652898528746 0.0035756512412 0.00854610811387 0.00281205347606 0.00499613263777 0.0039239219789 0.00402551410454 0.00158794876188 -0.00478474636163
Cross-talk_edgelists1_P24928.edgelist__2249281540 0.00251298929964 -0.00248054973781 0.00134316273034 -0.00103138573468 0.00441943481565 -0.00205328994031 -0.00061727940504 -0.00617709010839 0.0107608075653 0.00431214938206 0.00330566029463 -0.00493274203369 0.00298317441983 0.000742890938584 0.00133607895779 -0.00252712784069 -0.00263608779226 -0.010645101113 0.00347998392369 -0.00836023794753 -2.59019465635e-06 -0.00434159248003 -0.0076932651656 0.00188409324203 0.00163805790778 0.0087594746479 -0.0037496236286 -0.00328591279685 -0.00718691306455 0.00504749747259 -0.00115779614342 -0.0155197360686 -0.00375503727368 0.00452001605715 -0.000559365709445 -0.00645629050476 0.000290785084612 -0.0126390308142 0.00733455430184 0.00362586123603 -0.00598476028868 -0.000370368660827 0.00872105253594 -0.000572168334786 0.00507222648178 0.0040521861187 -0.00218986972634 0.00729819759727 0.0120985231229 -0.00327702824559 -0.000470813264006 -0.00306282618216 0.00108309436057 0.00192040817014 -0.011866488627 -0.000812787562609 0.0185708701611 -0.000379201024771 -0.000155344389246 -0.0164028874465 -0.00636732471841 0.0116201703038 -0.00796092035515 0.00741377153567 -0.00584603899292 0.00595531665853 -0.00616908871702 0.00456415436098 -0.00238165472235 0.00031804576117 -0.00518582814506 0.00285020736711 -0.00326390857143 0.0081826874188 0.00503440307719 0.0106205386775 0.00697831224118 -0.0130183569023 0.00846244075469 0.00364110219691 0.000778311464403 0.00657811015844 0.0147502486195 0.000399901930775 0.00175253913871 -0.00561172674809 0.00386799792094 -0.00161604490131 0.00519210259829 0.00647614736642 0.00522670415895 0.00669658716236 0.00101548706048 -0.00108868582174 0.00723522582224 -0.00223230410899 0.00591751294477 0.00571406739099 -0.00959143894059 0.00195928303791 0.00567204185895 -0.00235861060875 -0.00655048713088 -0.00312961611365 -0.00568930857948 -0.0113042880382 -0.00521542025464 -0.00163106740053 -0.00954316875764 -0.0101256466338 -0.0194348245859 0.000958125173513 0.000398045472269 -0.00501475855708 -0.00165310196046 0.000487503695435 -0.0012731959245 0.00715077295899 -0.00510152535779 0.00630992917078 0.00422249920666 0.008230432868 0.00175676973803 0.00527893964733 0.0052116555827 0.00306108248021 0.00124913972936 -0.00486510832395
Cross-talk_edgelists1_P24928.edgelist__2249281619 0.0018059748358 -0.00199611511614 0.00267159140536 -0.000154708412343 0.00354889913329 -0.00217744481883 0.000110444496386 -0.00659366324544 0.0102506311876 0.00438336016876 0.00285672955215 -0.00506341989551 0.00246812057282 0.000452278481264 0.00202365299421 -0.00267286385809 -0.00278697189476 -0.0103477101241 0.00372452554958 -0.00798383834107 -2.90122344658e-05 -0.00381798164121 -0.00626584248883 0.00107216668714 0.00191896754716 0.00817076382892 -0.0028667420681 -0.00378657930664 -0.00632529492889 0.00420009930219 -0.00130952375808 -0.0136303869741 -0.00345000278737 0.00421457817512 -5.2183355105e-05 -0.0063134974667 0.000294540310279 -0.011373426233 0.0075537844428 0.00359333891954 -0.00559217376368 -0.000597098842263 0.00823404746396 -0.000572130815791 0.0046930121524 0.00442416167685 -0.00241626426578 0.00658093765378 0.011701845697 -0.00346136492278 -0.000587507151067 -0.00228652118572 0.00106053779434 0.000385982516621 -0.0116618690746 -0.00157968447145 0.0175973230175 -0.000581560456859 0.000260709335894 -0.0149162581989 -0.0060717612505 0.0112957709602 -0.00802447912948 0.00656088973795 -0.00512394255825 0.00653155733432 -0.00620208946722 0.00493403311287 -0.0021259699549 0.000430995565174 -0.00593268126249 0.00320705904492 -0.00273468584887 0.0085058696568 0.00508159186159 0.00882789918355 0.0063804090023 -0.0124550504344 0.00751337089709 0.00256251277668 0.000463595879929 0.00703221506306 0.014384127089 -0.000339413959799 0.00114809655185 -0.00549453763025 0.00419123683657 -0.00195387870606 0.00399645577584 0.00579527712294 0.00503512046167 0.00610005057284 0.00217484469925 -0.000667012163571 0.00684107148222 -0.00294108209865 0.00554786037122 0.00456187448331 -0.00922894477844 0.00151691798653 0.0055358361985 -0.00254957617394 -0.00588692831142 -0.00238351470658 -0.00493720227054 -0.0101627292378 -0.00572395856891 -0.00200138507145 -0.00851984268853 -0.00918263942003 -0.017886366163 0.00109914590472 -0.000879404933325 -0.00533733091184 -0.00198947199221 0.000590501220099 -0.00132657547614 0.00623668304511 -0.0053075983056 0.0064637703555 0.00394243241421 0.00802938746555 0.00178726416613 0.00505678568568 0.00458795204759 0.00365853416068 0.00105662284685 -0.00405849117254
Cross-talk_edgelists1_P24928.edgelist__2249281525 0.00156420455979 -0.00211811744209 0.00171251129359 -0.000347965729556 0.00351026654243 -0.00107541241284 -7.35684464286e-05 -0.00683077690857 0.010068270777 0.00443759667022 0.00306043587625 -0.00506210540022 0.0028615769531 0.000250602340592 0.00117695451315 -0.00255844103439 -0.00226464069315 -0.0104180542486 0.003663824339 -0.00798058084079 0.000821163811322 -0.0032788749252 -0.00696170649358 0.00180183577218 0.00222758004176 0.00860340361084 -0.00364770899926 -0.00342605129949 -0.00764028834445 0.00500765176756 -0.00139589754066 -0.0146796107292 -0.00360383838415 0.00458873861602 -0.000243119878827 -0.00642870419792 8.72961702823e-06 -0.0116013480084 0.00842002193843 0.00318704758372 -0.00595007038542 -0.00117371444191 0.00842313362019 -1.7714137357e-06 0.00496382904904 0.00386877730489 -0.00200922627534 0.00646040375744 0.0117000288197 -0.00353611446917 -0.000101109700544 -0.00272459510182 0.00121190704937 0.00047401149225 -0.0123419910669 -0.00126803586526 0.0182224810123 -0.00025479618593 0.000520747620612 -0.0150476236429 -0.00652804172465 0.0125405767134 -0.00758511519858 0.00641410105995 -0.00507321528026 0.00635323354176 -0.00562431610056 0.00458275420325 -0.00285805495722 0.000603652958359 -0.00587187068803 0.00372126405793 -0.00321229467435 0.00860375538468 0.00519499874541 0.0091448447534 0.00688578773822 -0.0124312820179 0.00815516444189 0.00276434022401 0.000224381868195 0.0065188812358 0.0149689827647 -9.08056224164e-05 0.00155350379646 -0.00608625954815 0.00484476185271 -0.00193852864738 0.00442986296756 0.00619265862874 0.00507941629205 0.00633995607495 0.0014500667208 -0.000663414065327 0.00706596566098 -0.00306658127478 0.00485973006913 0.00490217336587 -0.00934373374496 0.00109526189044 0.00523294508457 -0.00300155074469 -0.0064877516457 -0.00308060646057 -0.00523658416101 -0.0108292262469 -0.00527000427246 -0.00161718497319 -0.00900986258473 -0.0100847919072 -0.0183971034629 0.000959816056171 -0.00110020701374 -0.00462724215218 -0.00205884128809 0.000837432154055 -0.00100503682292 0.00613669412477 -0.00554680292095 0.0063900670835 0.00406042752521 0.00808241537639 0.00218842205192 0.00519375024097 0.00468386922564 0.00382360017725 0.00162719802133 -0.00438644018556
Cross-talk_edgelists1_P62807.edgelist__26280516 0.00531586738569 -0.00787113394056 -0.00350488356448 0.00358094394739 -0.010080122206 -0.00310383028617 -0.01703619478 -0.00442323960098 0.0275719314814 -0.00134888730411 0.00142894542244 0.00172180635855 0.00145594055981 -0.00656835628407 -0.0187848210335 -0.00525012905044 -0.00982803542034 -0.0235128626227 -0.00235360541514 -0.014483439603 -0.0053417911487 -0.0144050690745 -0.0118259300611 -0.00132812273556 -0.0186981282064 0.0104644937175 -0.0125374270636 -0.00326217471489 -0.0112544846322 0.00766319275967 -0.00316874632803 -0.0239292553493 0.0162648766169 0.0159375992204 0.0100471994707 -0.000247371216704 -0.001387219743 -0.024791537651 -0.00290313256638 0.016986391374 -0.00652405865757 0.00393889977464 0.0179705279214 0.0150001959077 0.00929339123624 0.0119269246768 -0.00325537270068 0.00419324476804 0.0163748402681 -0.00966149102896 -0.0021101997367 -0.00952077364283 -0.000868779507333 0.0107722878456 -0.012915013358 0.00885851042611 0.0143513714096 0.00453204887786 -0.00745389371046 -0.017432219748 -0.0118131602981 0.0104878648583 -0.0239964244621 -0.00333480989294 -0.0114358365536 0.00676104838827 -0.00510022736021 0.010688186224 0.000210258511028 -0.00145657809584 0.001563197534 0.0134204051324 -0.0234454934086 -0.00620492923606 0.00792027943368 0.0266023225018 0.0104869910117 -0.0164037282978 0.00622734547194 0.0125266404024 0.00646820398314 0.00834486061441 0.0159862914256 -0.00236392440274 0.0093593874148 -0.0106891218041 -0.000465017901401 -0.0121201319354 0.0179253523903 0.00761260664357 0.00852891856006 -0.00214281305671 -0.00347852959697 0.0139036465968 -0.0113579806473 0.00489206399236 0.0066471863538 0.0029713170869 -0.00251318221646 0.0116407277861 0.0172397276121 -0.0117171611637 -0.0105877183378 -0.00842670404485 0.00390855279485 -0.0125083313324 0.00428506718682 0.00523263708289 -0.0250888200743 -0.0120273275035 -0.0215618706175 0.00957691084061 0.0166753455997 -0.0125930857446 -0.0104592489079 -0.012393564518 0.00788906881852 0.0122399276921 -0.00274538967018 0.0129885833178 0.00476808446027 0.0239802939551 0.00400680689407 0.00896896528346 0.00849136104807 0.000129432982898 0.00850118031459 -0.00728281028569
Cross-talk_edgelists1_P62807.edgelist__262807113 0.00295117231352 -0.0101371833256 -0.00552990234324 -0.00105835118198 0.00139669555106 -0.00325355253049 -0.00631583482027 -0.00157836265862 0.0107479340264 0.00520240994436 0.00467789864966 -0.00461656813111 -0.00297539681196 -0.0029706720795 -0.00160743961377 -0.00102295161092 -0.00971215537616 -0.00931600268398 -0.00419032786574 -0.00631039110678 -0.0041373404009 -0.00678409636021 0.00173846738679 0.000920817455543 -0.0152899889009 -0.00130318371313 -0.00481628147619 0.00105320336297 0.0033608709595 0.00123449441578 -0.000460130827768 -0.00911499453442 -0.00179605358945 0.000864513085357 0.00173771554338 -0.00744149461389 0.000735330461924 -0.0183724505561 -0.0022406439696 0.00117956195027 -0.0042271366609 0.0120234585234 -0.00037291958662 -0.00213226210326 -0.00384909766061 0.000628096783268 -0.00277712728296 0.00837273948959 0.00419015224491 -0.00414492455976 0.00272267391639 -0.000884987413883 -0.00684077611991 -0.000975060409733 -0.00464721715876 8.57827710986e-06 0.0016576037077 0.00616294039147 -0.00392692482897 -0.0128361753055 -0.00813155142324 0.0109545152102 -0.00441345599081 0.00382185008909 -0.00333799395178 0.000160460277194 0.00187042222491 0.00857452516045 0.00127848078098 -0.0065364922796 0.00125151779503 0.0029252424304 -0.0071319565177 0.00993246159383 -0.00428546220064 0.0113814143198 0.00665931616511 -0.012290305325 0.00691479338067 -0.00533089946423 0.00151112449488 0.0109561426299 0.00986789273364 -0.0133419398751 0.00472866797021 -0.00261902968798 -0.00105286582506 -0.00305576968406 -0.00488825035947 0.0101619948234 0.00709402880498 -0.00445769062 0.00401440129748 0.00790125291262 -0.00427312430527 0.00275083099093 0.00504984227674 0.00141270711486 0.00228277514023 0.00268044828304 0.00106987882672 -0.00185563894255 0.00160297392202 0.000897722185722 -0.00270236044058 5.90662654888e-05 0.00181185760136 0.00382160155901 0.00219694405262 -0.0100184998342 -0.0142655947379 0.00144933549953 0.00184329545924 -0.000290806172416 -0.00307599854256 -0.00322666977133 -0.00383690372109 0.0022293323917 -0.0128769480756 0.00941813843591 -0.00538623599069 0.0154564338071 0.00366651985262 -0.00193369055965 0.00414760783315 0.00188168444272 0.00486217385956 -0.0112110046404
Cross-talk_edgelists1_P62807.edgelist__262807120 0.00205056675311 -0.00279713209186 0.00187240993338 -0.00247947259673 -0.00966735184193 -0.00391754268536 -0.00893527907985 -0.00566131994128 0.0129200741649 -0.00279984995723 -0.000451559367191 0.000124888619341 -0.000747839454561 -0.00102057873404 -0.00633463742478 -0.00357851013541 -0.000325594563037 -0.0110915569322 -0.00562061209764 -0.00903538295201 -0.00700395660741 -0.0142781234213 -0.00749360557113 0.000754628396992 -0.00863751449755 0.0043689504798 -0.0130598108683 -0.00553617626429 -0.00494174712471 0.00659030196922 -0.00312038803739 -0.0103888873543 0.00760639033147 0.0126754694751 0.00786920211145 -9.52288558308e-06 -0.00242878815957 -0.0114180647901 -0.00156896481557 0.00761944853834 -0.00737750689898 -0.00325644787933 0.00562066318733 0.0112469185676 0.00152426864952 0.00201109397624 -0.00106230823855 0.00163525915039 0.00928313072239 -0.0111408638103 0.00222546806825 -0.0015472168369 0.000631836841681 0.00446955700006 -0.00883392670325 0.00102408829012 0.00327797207449 -0.0018191165956 -0.00409136845597 -0.00323589279183 -0.00776868898954 0.00749191588589 -0.0134453933154 -0.00211546343884 -0.00812785912837 0.00538580971105 -0.0024240839162 0.00461956965072 0.0018742173644 0.000207450141066 -0.00139853344964 0.00843770642366 -0.00562555981534 0.00158663320222 0.000839442812971 0.0133939204471 0.00172559690795 -0.0115959974272 -0.000446167242314 0.00248623932047 -0.00337087682315 0.00156969310982 0.0105962444629 -0.0011945619647 -0.000616080393749 -0.00608052313328 0.000481006722631 -0.00884873260345 0.00613106042147 0.00631820623364 0.00261320040694 -0.0051619032664 -0.0014730753111 0.00852938475353 -0.00244831879224 0.00272253741111 0.00526289056454 -0.0044775461512 0.000987489175584 0.00384155873741 0.009121882064 -0.00799034801977 -0.00719333386847 0.000491752788158 0.00594962601151 0.00184653579657 0.00188753101975 0.00288911083979 -0.0123261202659 -0.005879573524 -0.00701341937695 0.00794863381556 0.0072196471904 -0.00276176498405 -0.00858168782932 -0.00556494987437 0.00524004282696 0.00545768599425 -0.000160068123867 0.00538420198219 0.00473277696541 0.0157994755677 0.00118157320789 0.00718756232943 0.00886298503195 0.00105179613456 0.00572215073875 -0.00290917126196
Cross-talk_edgelists1_P62807.edgelist__262807121 0.00217862906201 -0.0101178235241 -0.00608649370926 -0.000294479707788 0.00101477812443 -0.00230857809739 -0.006982033274 -0.00161437730172 0.0109252216561 0.00528367928096 0.00464063297425 -0.00488505512476 -0.00308266308691 -0.00360110242452 -0.00233523441213 -0.00120586742248 -0.0100598079818 -0.00974967224257 -0.00442014927311 -0.00592462239521 -0.00348294180419 -0.00621519610286 0.00241378056152 0.00110111385584 -0.0153306541698 -0.00109301507473 -0.00517779109733 0.00148328273956 0.00283955809261 0.00123615469784 -0.000564006689404 -0.00888952666095 -0.00168824408736 0.00076382287911 0.00203935535891 -0.00758131380592 0.000902204242136 -0.0181755317109 -0.00151389198644 0.00100822560489 -0.00405576984797 0.012040017971 -0.000285768382517 -0.00111255142838 -0.00378047887768 0.000693559846176 -0.00274881028703 0.00842615057315 0.00411814637482 -0.00416383173849 0.00295127183199 -0.00105685694143 -0.00702890434435 -0.00148419636701 -0.00523717648217 0.000371462732021 0.00200108731432 0.00688720867038 -0.00380193521934 -0.0128898578031 -0.00830778160266 0.0119734438402 -0.00458840227553 0.00230876010443 -0.00255466971014 0.000442340071978 0.00222935261471 0.00888538679906 0.000888909346291 -0.00639271736145 0.00104841782844 0.00368599513812 -0.00820779906852 0.00975349651916 -0.00387310822095 0.0110041701368 0.00744088579501 -0.011929555663 0.00687983791743 -0.00568759441376 0.00161049036043 0.0115113481879 0.00961320315089 -0.0137033973421 0.00544093070286 -0.00323939616127 -0.000360247712316 -0.00337521705244 -0.00470308267644 0.0101814089077 0.00712351234896 -0.00476842533265 0.00446159365986 0.00852688242282 -0.00503397466881 0.0026175653828 0.0043718604637 0.00113016939057 0.00203389754253 0.00176622585527 0.00107814970293 -0.00235295561807 0.00152010257755 0.000628000990088 -0.00203282332846 -0.000380307469251 0.0020471864513 0.0041529916759 0.00220015924424 -0.010592098747 -0.0145887221609 0.00191626684474 0.00123536427106 8.02744678887e-05 -0.00290118716657 -0.00338569735842 -0.00347265308457 0.0017425351377 -0.0138211995363 0.0099448167852 -0.00604872033 0.0160180681518 0.00456042587757 -0.00189046202494 0.00362713395485 0.00252470853073 0.00531177222729 -0.0114712065884
Cross-talk_edgelists1_P62807.edgelist__26280735 0.00289693102241 -0.010142467916 -0.00510841341955 -0.000930720740663 0.00162204421524 -0.0033488260316 -0.00589078345469 -0.00186536594161 0.0105953227196 0.00518595107964 0.00477250931518 -0.00485290001546 -0.00324312224984 -0.00334143558783 -0.00116041994521 -0.00148562501584 -0.0101352046643 -0.00927492869752 -0.00437265980457 -0.00701219003115 -0.00435310575579 -0.00706744832652 0.00235531213028 0.000793868210167 -0.014975831977 -0.00135938131383 -0.00431465889726 0.000995556757386 0.00369944024299 0.00108341094373 -0.00066741595843 -0.0084945580789 -0.00157367850521 0.00050843497073 0.00194857375962 -0.00766100787691 0.000798595803125 -0.0179932160037 -0.00189994248961 0.000765745794134 -0.00374345641051 0.0122333530869 -6.86423279279e-05 -0.00140891317278 -0.00405478104949 0.00120256960924 -0.00317911856941 0.00823720651014 0.00462623845254 -0.00476299173066 0.00288491084107 -0.000938427900629 -0.00712624564767 -0.00127903717969 -0.00498822650739 -0.000405895690035 0.00130770847734 0.006261945303 -0.00340353803975 -0.0127987105932 -0.00829818472266 0.0113426074386 -0.00488171194281 0.00328923495752 -0.00328187192125 0.000669115356037 0.00202469940164 0.00875431033117 0.00157001268651 -0.00598962392126 0.000796253659895 0.00345010975642 -0.00670122727752 0.0108179183943 -0.00419518750693 0.0106796643564 0.00710357353091 -0.0124751212341 0.00622912177018 -0.00529490837029 0.000522112739938 0.0119221881032 0.0100749124374 -0.0138948474612 0.00453942322305 -0.00270153182958 -0.000569045477148 -0.00363637427134 -0.00584812621985 0.0100389080388 0.00734082130449 -0.00432178963508 0.00495163564171 0.00808542221785 -0.00393582188657 0.00245559375201 0.00499672495893 0.000911075222705 0.00188623528395 0.00258460694126 0.0012267918459 -0.00190817391766 0.00190100605999 0.00105707906187 -0.00186423771083 4.06519102398e-05 0.00123507489583 0.0041187072971 0.00255538177277 -0.00975369981357 -0.0142058219228 0.00174189026334 0.00108717162428 -0.000350804134671 -0.00326321965882 -0.00326936825046 -0.00431951481317 0.00205611810088 -0.0129134644355 0.00969098508358 -0.00537399362241 0.0159434601665 0.00346266398472 -0.00127503169434 0.00382639574153 0.00233129678028 0.00520995152848 -0.0109041141612
Cross-talk_edgelists1_P16104.edgelist__28424337 -0.0109345588301 -0.0474800977058 0.0265004408861 -0.0207032500766 0.00171794028886 -0.0815073740336 -0.0863367268882 -0.0334253282552 0.0859149034534 0.0184699239076 -0.0280097042809 -0.042747624285 -0.032334149416 0.0139312140777 0.0629166851618 -0.0261044794294 -0.0852737008993 -0.133049048483 0.00077793753839 -0.0578306196923 -0.076302524523 -0.0807435247116 0.0344861174401 -0.00777892848211 -0.0164315765058 0.0434175343918 -0.0440966858795 0.0138927916331 0.0049961774743 -0.00410959981049 0.00252669534114 -0.0790002810037 0.0131360253186 0.0638528116313 0.0052676222653 -0.0594166748758 0.0783755305622 -0.125666618613 0.0322240048387 0.0330049126476 -0.0191466966644 0.0204534340875 0.0311113697431 0.0710476682122 -0.0263901894796 0.0616023996845 -0.0270782598693 0.0536573382893 0.0485398980922 -0.0587272135807 -0.0343964060635 -0.0299395346083 -0.0074737558607 -0.00586220656156 -0.0521811485024 -0.0273374518895 0.0968961186175 0.00862672406116 -0.0823625765604 -0.0984214009451 -0.0156926125439 0.0367583288529 -0.127612506172 -0.0287911361083 -0.0461550162706 0.0645138535516 -0.0785454953355 0.0865249351731 0.00116595233391 -0.0338885193425 -0.0249870818474 -0.00364946607234 -0.0414732487282 0.0103256411385 0.0331946705202 0.0396112847874 0.0315192520086 -0.121504339256 0.00336681672239 -0.0153808207916 -0.00381761849193 0.0957222768837 0.0437424075125 -0.03530599238 -0.01138692982 -0.0612335684709 -0.00880810132782 -0.0523756999256 0.0399480121476 -0.0102432529176 0.0178568964553 -0.00239929004705 0.0240648550181 0.0111902866047 -0.014324139734 -0.00403341458046 0.0167250497034 -0.0112858012186 -0.0504100393903 -0.0282354361095 0.0478260721346 -0.0329775552631 -0.0130400368279 0.0208536236148 0.0179666340617 -0.0288096428184 -0.0618436437612 -0.0372766305559 -0.0537659269758 -0.0510826091548 -0.149917203401 0.0339392957145 -0.000884751223826 -0.0257745317566 -0.0220448927555 -0.00213156964829 -0.00943719339557 0.0516489693629 -0.0745101847736 0.0496882129727 0.00504835565308 0.0758465139994 0.0369005061886 0.0346644832586 0.00955493355702 0.00429652100762 -0.00552747199046 -0.0616965689946
Cross-talk_edgelists1_P16104.edgelist__204637249 0.0136083354342 -0.0339435062238 0.0220758537928 -0.0289671490235 0.0108668570008 -0.0678144349451 -0.0817523119705 -0.0133241309917 0.0926941154259 0.0374738268022 -0.0131913436219 -0.0718174516889 -0.039748695679 -0.00132261299794 0.0226532571417 -0.0388726948627 -0.0961313676089 -0.122107714947 -0.0165107499176 -0.0499229505326 -0.0544943390082 -0.0678582774874 0.0415415103946 -0.0148465018719 -0.033464169795 0.035862921205 -0.0412388566349 -0.0131097607331 0.0223821767847 -0.00592527759727 -0.00646848904268 -0.057046440983 0.00843025544392 0.0512754033719 0.00935803056096 -0.0471560981657 0.0665574798893 -0.119709144346 0.0358803669556 0.0439311988718 -0.0114803324187 0.0222152134936 0.0213995218245 0.104953915363 -0.0048321625883 0.0493939299402 0.0036755318953 0.0509886955177 0.0376894610402 -0.0680753218143 -0.00400928205012 -0.0234841504883 -0.00476343164753 0.00217543568163 -0.0760115116302 -0.0136545176418 0.0685712423708 0.00961079381938 -0.0519293147538 -0.083360232945 -0.0318872080118 0.060710796471 -0.0872118592794 -0.04471093669 -0.021426991493 0.0511031195721 -0.0803149628586 0.0927990355662 -0.0180165160314 -0.0368939679382 -0.00100584973448 -0.0129205572552 -0.075467328674 0.00875843715455 0.0282111184538 0.056656992013 0.0325352077905 -0.107376122049 0.0137950321327 -0.0073774206186 0.0131772067315 0.0929893392271 0.033228185876 -0.0379900265003 0.00450733190935 -0.0578353752249 0.00644237292831 -0.0530755142681 -0.00108765797423 0.00119382123064 0.0228323120225 -9.70565846988e-05 0.0226538955758 0.0200582890767 -0.0202419487427 0.0100607551036 0.0261186924763 -0.0397558870692 -0.0305981412863 0.0045904073964 0.0604906325628 -0.0457406859246 -0.0366784960165 -0.00873882912232 0.000992215438081 -0.0335908209839 -0.0207438636571 -0.0344902852417 -0.0363666900168 -0.0563952368019 -0.119454047244 0.0642153661299 0.00629661882496 -0.0210420092834 0.0120007467423 -0.00298021364558 -0.0213922250218 0.0734467165145 -0.0587095086729 0.0832291351897 0.00797099500362 0.0796324715817 0.0106791752831 0.052994332875 0.0215756490444 0.00255468437847 0.00530699307897 -0.0305216058041
Cross-talk_edgelists1_P16104.edgelist__20867061 -0.0035732216867 -0.0304051591416 0.00555946533028 -0.0106994023081 -0.0073947112209 -0.0523790404633 -0.0784414330763 -0.0137551410922 0.0679830227579 0.00399587103831 -0.0186222703196 -0.0272523463438 -0.0249862440562 0.00154516529957 0.0259218670627 -0.0179737162876 -0.0572145791458 -0.0911370515823 -0.0143934447385 -0.029370478055 -0.0464386576787 -0.0546536977636 0.0220956134757 -0.0130701709007 -0.026971942213 0.0269120662872 -0.0394647922367 0.0119695853708 -0.000972109647202 0.00610612698698 0.00193617406434 -0.0455301602072 0.0146445151685 0.0373726576301 0.00573695829371 -0.0384209941008 0.044776697244 -0.080687429889 0.0151275242014 0.0258061292448 -0.00623774814552 0.0290191349673 0.0241405483269 0.0598760587828 -0.0142794864784 0.0374020882217 -0.00995676947891 0.0509827928285 0.040255707988 -0.0462773531409 -0.0137401775989 -0.0312750970812 -0.0117677229989 0.0213331750128 -0.0510010833719 -0.00150563903818 0.0662133781505 0.0180661945072 -0.0579804024559 -0.0791438067598 -0.0159065305654 0.0329474824082 -0.0794017777911 -0.0298530519275 -0.0259290022576 0.0277248427904 -0.0545957392481 0.0610209054181 -0.00187311022143 -0.0261503748895 -0.0135255443664 -0.00879335124046 -0.0478688278901 0.00585594826511 0.0214064558968 0.0491570099257 0.0373430510684 -0.06997655066 -0.000435897515022 -0.0026641438183 0.0118056143235 0.0722198371243 0.0241863888722 -0.0197478563392 0.0173400120693 -0.0436941767777 0.000309217779431 -0.04018505207 0.0314604626702 0.0116580516665 0.0152601815561 -0.0112318069275 0.0175250468643 0.018049496093 -0.016313962339 0.00519236024203 0.0189475740772 -0.00699124079464 -0.0374211923751 -0.0259301844053 0.0376442637561 -0.01952245903 -0.0135462168005 0.00604586043794 0.0151794264093 -0.0292179394247 -0.0306394639691 -0.0121440227044 -0.0385534059522 -0.04238287426 -0.107099295727 0.024591651479 0.0108330080319 -0.0279023931694 -0.00359656342438 -0.015901328896 -0.00356365913259 0.0358497794451 -0.0474694384362 0.0449024210019 -0.0148618903144 0.0656266936899 0.0326808741515 0.0256471079774 0.00959048679631 0.0142344270134 -0.00560564040539 -0.0579767217527
Cross-talk_edgelists1_P16104.edgelist__300613303 -0.00196476940723 -0.0315882218336 0.0040207818716 -0.0173923425422 0.00244675244072 -0.0358689330366 -0.0612319672946 -0.0196902892951 0.0394241054143 0.0165416155942 -0.0108465677061 -0.0169385474707 -0.0320538753378 -0.00149100919121 0.0209719879287 -0.0140366184725 -0.0324809847267 -0.0787397239889 -0.0109359215795 -0.0260550685759 -0.0320509718066 -0.0532153657238 0.00649060575025 0.0017698897448 -0.0238995685109 0.0140849567958 -0.0363485986101 -0.00868642193797 -0.0120779653745 0.00237719215719 0.0104675751313 -0.0476718388631 0.018452049233 0.033117448778 0.00924553700315 -0.0351385684418 0.0271747607954 -0.0626707286158 0.0129622428545 0.0283082602878 -0.0156427929843 0.0220564879211 0.0188152560565 0.0406162140093 0.026493961241 0.0243117811957 -0.0330008500688 0.0550803478109 0.0371319011652 -0.0505929893947 -0.0103449804176 -0.0178267349423 0.00340045735772 0.0161950911861 -0.0400559972373 0.000804883893579 0.0504072033135 0.0226054405627 -0.040544952532 -0.0723638774029 -0.0234124325382 0.020957563958 -0.0701904443226 -0.015729321433 -0.012047611942 0.0150214089496 -0.0405627572576 0.0555716976523 0.015632123755 -0.0137900248769 -0.00316968034687 0.00224815071228 -0.0358561634286 0.0159061282341 0.00983458803967 0.027650897757 0.0331403688927 -0.0552430937865 0.00869837662737 -0.00852002762258 0.0217949155319 0.060736560429 0.0245271479445 -0.0235221294154 -0.000562398494887 -0.0439965484797 -0.000164015376608 -0.0158660613732 0.0329506471753 0.0159981001046 0.0140445800664 -0.00496060813644 0.0331181537851 0.0315432941009 -0.0158151217703 0.00689163684313 0.0357271506052 -0.00807089894079 -0.0392376638151 -0.00719476757305 0.0346205305042 -0.0115727676644 -0.0208638948388 0.0246304994715 0.0323348181721 -0.0258034964125 -0.0322751686908 -0.00793223275936 -0.0443892654564 -0.0367847843362 -0.0893275897418 0.0438141923597 0.00286757523593 -0.0212082522921 -0.00321127786966 -0.019505967253 0.00420489069074 0.0199785283101 -0.0596858052138 0.0462019792093 -0.0188617129451 0.0816624201169 0.0303270994877 0.0125964758751 0.0125072972982 0.00593357902419 -0.000919527839869 -0.0330096010252
Cross-talk_edgelists1_P16104.edgelist__300613307 -0.00267101999738 -0.0310277425618 0.00387266770537 -0.0126490491842 0.00168265262619 -0.0373712103548 -0.0615654425762 -0.0175827319867 0.0406796479864 0.0145159960458 -0.0106103946787 -0.0179796281071 -0.0296989594852 -0.00396706782547 0.0207923041058 -0.0162457590923 -0.036588301483 -0.0787738481803 -0.0106285579719 -0.0281946647114 -0.0344208448244 -0.0556401248489 0.00895235747365 -0.000782199869198 -0.0261179929865 0.015172967205 -0.0364761508203 -0.00781599473807 -0.00686574407986 -0.000893037533388 0.0101316443511 -0.0436798001008 0.0203063766738 0.0325591714521 0.0117429858406 -0.0336985125073 0.02768662991 -0.0607455418878 0.0102075972993 0.0275630684628 -0.0145071336551 0.0244816868736 0.019638517385 0.0422496290079 0.0231202020119 0.0262379929689 -0.0330827591076 0.0548351772367 0.0390424817534 -0.0483826233207 -0.0110569935891 -0.0186268717184 0.00268201776115 0.0174539836922 -0.0385366894438 0.00188017170876 0.04996306529 0.0243206799787 -0.0406718611983 -0.0721085473363 -0.0202382488309 0.0206473713209 -0.0710208421307 -0.01955384189 -0.0121998331243 0.0164424582342 -0.041176409261 0.0552863098149 0.0145566279368 -0.0143173377146 -0.0037996943907 0.00449588346029 -0.0364991075891 0.0158663268916 0.0147572148791 0.0286953310299 0.0345097890396 -0.0551190511989 0.00383509778684 -0.00599611710225 0.0196405956854 0.0641264133654 0.021771854089 -0.0244320857206 0.00212445169953 -0.0415344994316 -0.0016365496475 -0.0181288040559 0.0331702051418 0.015244098031 0.0123514805288 -0.00491195039025 0.0343568968757 0.031030801391 -0.0166031547373 0.00770183905427 0.0348365280245 -0.00810027002756 -0.0396218989044 -0.00659150443971 0.0362534777794 -0.0105740340493 -0.0187481965737 0.0250432579113 0.0351528440868 -0.0246913247476 -0.0328447345112 -0.00756375518228 -0.0435814809586 -0.0350164866873 -0.0886738295002 0.0442924296616 0.00503865177234 -0.0206162882304 -0.00246012929295 -0.0216519727505 0.00227729261055 0.020853837952 -0.0565834168478 0.0461671884571 -0.0191518196765 0.0804338995367 0.0289518156787 0.015042420776 0.0124360789944 0.00697296939325 0.00220692164398 -0.0324076986872
Cross-talk_edgelists1_P16104.edgelist__20867066 -0.00228988765489 -0.0313687119633 0.00769003756743 -0.00928471871469 -0.0089607287165 -0.0535548285448 -0.07691657011 -0.0178769304018 0.0635751033468 0.0074369453692 -0.0199068476712 -0.0283400268028 -0.0254907716548 -0.00131103689117 0.0255515117315 -0.0179763890005 -0.0573831123433 -0.0933272678937 -0.0108525223165 -0.0341911758296 -0.0469864264929 -0.0545571795665 0.0235717660481 -0.0141255640026 -0.0280617619199 0.0257495009739 -0.0370412379769 0.00848148058036 -0.000827711674252 0.00289514388091 0.0018558027888 -0.045037085523 0.0198063676112 0.038306094573 0.00808589743662 -0.0367472326117 0.0434723774503 -0.0812984227336 0.0146251638653 0.0258648667368 -0.00602399890444 0.028078458538 0.0267742095914 0.0604907126565 -0.0104410511974 0.0402204657772 -0.0124837877561 0.0507181252552 0.0414852034301 -0.0498348993382 -0.0136332648274 -0.0310120915861 -0.00989632769155 0.018169956049 -0.0514417690491 -0.0049882402444 0.0628983246695 0.0216258615921 -0.0572630518914 -0.0781105360282 -0.0174650640693 0.0325601348387 -0.0791288914957 -0.0290458279529 -0.0252912139986 0.027230836185 -0.0535324555489 0.0637615376285 -0.000874954209264 -0.0261303572915 -0.0127881969924 -0.00546422500962 -0.0473008158151 0.0102177848707 0.0225305158279 0.0451270868403 0.036242058588 -0.0709160707359 -0.00277768961886 -0.00455376129997 0.011493704947 0.0746249841593 0.0280674089944 -0.0257906239546 0.0144970854412 -0.0465202529116 0.00131910731631 -0.0411946289241 0.0260797588687 0.0122150317101 0.0153582080134 -0.0123470304534 0.0213898026185 0.021440825292 -0.0164807744108 0.00259242266683 0.0187357551352 -0.00941951928793 -0.0379361159368 -0.0210746544014 0.0399506084089 -0.0198834531142 -0.0107029785809 0.00824510598821 0.0191080930443 -0.0275138500147 -0.0325135607938 -0.0109751865467 -0.0364684151219 -0.0387377209429 -0.107008174594 0.0277354520845 0.00805657180691 -0.0297098244274 -0.0062248260448 -0.0149648107056 -0.00656798179261 0.0353978713974 -0.0483954874799 0.0470210488087 -0.014904924236 0.0678860759363 0.029814831529 0.0262460889561 0.00988785224035 0.0144910182737 -0.00137415182378 -0.0530972143169
Cross-talk_edgelists1_P16104.edgelist__206400249 -0.000828394616422 -0.0188251006683 -0.00116311039684 -0.0107236427721 0.0111704396882 -0.021296626223 -0.0414867027264 -0.00962733197957 0.0267054646143 0.00582131617037 -0.00479373439781 -0.0136536619227 -0.019083010831 -0.00859294485833 0.0150484371199 -0.0200986453731 -0.0307773309095 -0.0485011030521 -0.0152627415612 -0.0250371610912 -0.0278009426048 -0.0484570711851 0.0119605172825 0.00499513080078 -0.0130031279155 0.0113311085318 -0.0188000661188 0.000223872650947 0.000793372347419 -0.000114814960398 0.000103379466704 -0.0238046580926 0.0127902541842 0.0127472221585 0.00890613457055 -0.0230928640813 0.0227051591501 -0.0368780137235 0.0068360570918 0.0106650805766 -0.00315446546301 0.0216728256616 0.018575057853 0.040857001873 0.0138810799357 0.0226709668392 -0.0289860579318 0.0387088678711 0.0295389261363 -0.0346637196573 -0.00497781352273 -0.0154446959496 -0.00771970355085 0.0197600631842 -0.0246710656543 0.00638340162446 0.0285453567547 0.0164629038024 -0.0217528112366 -0.0514439647751 -0.0110118913996 0.0122587608307 -0.0565363448113 -0.0224515703906 -0.00960233095767 0.0157770167072 -0.0202515317526 0.0342000762799 0.0179039786038 0.00291264190206 -0.00413540245167 0.00492910402162 -0.0207190295083 0.0149593213573 0.0124151231056 0.0176452062026 0.0308393679027 -0.0350147320756 -0.00744206969726 0.006751882694 -0.00257053979606 0.0505074383441 0.0087484457264 -0.017306849427 0.00221296160349 -0.0263139222349 -8.21899489633e-05 -0.0167739967416 0.0195665781253 0.00988116107016 0.0114231383029 0.00105359019446 0.0295708369397 0.0222604629318 -0.0089790500767 0.0120222986776 0.0249508035236 -0.00494324553957 -0.0329294236643 -0.00676073945527 0.0261780458636 -0.00518211279996 -0.00899543766198 0.0182279288503 0.0372005205801 -0.023112013936 -0.0232577824167 0.00257956451138 -0.0294972160565 -0.0204503521589 -0.0619987605938 0.0384735156383 0.00115044367288 -0.00710243839837 0.00229128258902 -0.0168239864787 -0.000553706527821 0.0148481154548 -0.0371098011799 0.0288683330374 -0.0126135023976 0.0610022480999 0.0190841385296 0.0218466591489 0.00263225460159 0.00725444499403 0.0055232580219 -0.019683001563
Cross-talk_edgelists1_P16104.edgelist__206400841 -3.46480103742e-05 -0.0180065609249 -0.000343028722065 -0.00807352829725 0.0113829200023 -0.0236522982762 -0.0414147381006 -0.00898098526523 0.029776382127 0.00526789509292 -0.00474024216445 -0.0152572755968 -0.0176908953914 -0.00865181402436 0.0149990555754 -0.0218116283151 -0.0342420121389 -0.049442676029 -0.0151133556584 -0.0261278371327 -0.0291929618189 -0.0514589750341 0.0127631408562 0.00398767659707 -0.015766331926 0.0126907570687 -0.0201863744961 -0.000763698148408 0.00445917321901 -0.00211974898619 -1.53824304497e-05 -0.0228344843324 0.0127290737416 0.0126562809039 0.0107114612557 -0.0216460710924 0.0238762790603 -0.0371014151855 0.0047735881526 0.0113150401792 -0.00394361027117 0.0244577954623 0.0188554418273 0.0405470114201 0.0122540717961 0.0230107993952 -0.0287454248672 0.0401855190783 0.0316990666491 -0.0332001393129 -0.00604122491287 -0.0144486552038 -0.00920309951263 0.020534276297 -0.0241799862956 0.00711617726899 0.0285537175036 0.0155391948065 -0.0221572546288 -0.0521897992917 -0.00938345290654 0.0119240501496 -0.0579546671361 -0.023308628904 -0.010401850084 0.0172065487714 -0.0217627689043 0.0352172542896 0.0176691403945 0.00169991613698 -0.00401115577136 0.00603606315729 -0.0219167912312 0.0155951141247 0.015429776295 0.0196384552712 0.0312638642 -0.0370158805911 -0.0088015105409 0.0067952254654 -0.00227742123285 0.0524626243319 0.00779047142714 -0.0188592424882 0.00306828393202 -0.025112021781 -0.00245340574267 -0.0172882398058 0.0207316867475 0.0104452169721 0.0102914235821 0.00107419071719 0.0298922553214 0.0224207646347 -0.010060545689 0.0135616007693 0.026920881588 -0.00432012466315 -0.0321729871045 -0.00457717746031 0.0284243866003 -0.00528927519917 -0.00861870697034 0.0191372480643 0.0375588304097 -0.0218722499641 -0.0234653369657 0.00118937029869 -0.0295142262642 -0.0205142294456 -0.0628840992493 0.0390589281118 0.00395779444703 -0.00770636435066 0.00308833060054 -0.0187080574688 -0.000945154111832 0.0164690203965 -0.0363597662415 0.0303890787597 -0.0121312373667 0.0622848660818 0.0187171077788 0.0230553731256 0.0035787702405 0.00787434028462 0.00764641105863 -0.0199088735639
Cross-talk_edgelists1_P16104.edgelist__2062131216 -0.00335110923541 -0.0214072241049 -0.00872273737332 -0.0160887578635 0.0101705225451 -0.0222779176797 -0.0572139902839 -0.0128115181412 0.0321567979242 0.00993535905478 -0.00875299882942 -0.0223281526539 -0.0168131099282 -0.012126467989 0.0135542547463 -0.0232927404078 -0.0371424082134 -0.0641631829951 -0.0165519526345 -0.0249928257295 -0.031034843597 -0.0618563789342 0.0126349699983 0.0110654149071 -0.0195754222971 0.0164362347818 -0.0350454667849 0.00222725002095 -9.18559463961e-05 0.000935636818342 -0.00151697624408 -0.0388003280386 0.0108786063003 0.0231361595382 0.0102221622697 -0.0250853190997 0.0302536060501 -0.0528702432556 0.0102823523339 0.0115047327376 -0.0142559865465 0.0229394021953 0.0170578798944 0.0489895085671 0.0149718751865 0.0163499158142 -0.0279303148522 0.0504394767008 0.0310543523436 -0.0379743514849 -0.00289485058082 -0.0188278469141 -0.0086547009913 0.0241114428001 -0.0314288376165 0.0110244161582 0.0380299644811 0.0220647297267 -0.031959299996 -0.0598407432969 -0.0105562663438 0.0208996683359 -0.060984212373 -0.0254455118307 -0.0119812127502 0.0156480566075 -0.023648797867 0.0422005520335 0.0118311604352 -0.00430288378681 -0.00199240512614 0.00171669233324 -0.0312691248421 0.017654005039 0.0194189102123 0.0301747870898 0.0327502566257 -0.045478486589 -0.0035509888881 0.00507403810376 -0.000437493585715 0.053886615904 0.0125271017397 -0.0228428505028 0.00424747338652 -0.0335779952418 -0.00426388095054 -0.0159486756228 0.0314856770981 0.0170140901713 0.00971020841306 -0.000325196688729 0.021987378248 0.0252360272487 -0.0120884927123 0.0191054430657 0.0265249657844 -0.00195193608358 -0.0334761567148 -0.0102233210512 0.0284871071178 -0.0102104416915 -0.0151787654364 0.0215882883141 0.0377460720982 -0.0244550135519 -0.0197424220054 3.37020360998e-05 -0.0359220600554 -0.0333344563842 -0.079706424049 0.0477198335741 0.00396446063782 0.00165237446449 0.00621909265673 -0.0175850926399 0.00137700320088 0.020516173648 -0.0503276416234 0.0337061262024 -0.014642248612 0.0722505632522 0.0273830883338 0.0244574894085 0.0075872055521 0.00750480672078 0.0110576737539 -0.0279976027086
Cross-talk_edgelists1_P16104.edgelist__2062131217 -0.0043026772993 -0.0233914101762 -0.00914331614123 -0.0180915444091 0.00996214377561 -0.0228011036026 -0.0583300289831 -0.00920694028693 0.0332586517824 0.00633994963885 -0.00669554667547 -0.0181526694713 -0.0219247877997 -0.00880955439061 0.0147466028907 -0.0208743362954 -0.0341315492988 -0.0625266693532 -0.0202514104645 -0.021943387775 -0.0287251367367 -0.0578719454684 0.0104791253439 0.00921341716977 -0.0178773711835 0.0148520336287 -0.036443741593 0.00437180312084 -0.00421473889479 0.00454383516418 0.00272331028827 -0.0375896620431 0.0109888502796 0.0222273090455 0.0075092932675 -0.0284020887422 0.0285853227334 -0.0490512682923 0.0114142890088 0.0126396960446 -0.0104910438614 0.0241482897296 0.0157499263512 0.0497499039131 0.0144835108159 0.0162800587714 -0.0273197869038 0.0496663263932 0.0312207204157 -0.0400026265 -0.00326675336276 -0.0207524181294 -0.00697722168635 0.0259477556018 -0.0331123953885 0.0112451331224 0.0389740344669 0.0219570983733 -0.0318772055741 -0.0619600244931 -0.0130918065219 0.0221895821659 -0.0609806017684 -0.0271578127784 -0.0101378618274 0.0144183613426 -0.0262168258695 0.0408094679671 0.0125026186662 -0.00382263459531 -0.00248333269597 0.000955678389541 -0.0316099246432 0.0142516675405 0.0137294733099 0.0291027157301 0.0363440053271 -0.0432614315567 -0.00143891324582 0.00431395874226 0.00264846683214 0.0553118524674 0.0100477934216 -0.0176373359282 0.00687781342172 -0.0330220922562 -0.00180477083528 -0.0161874578002 0.0325972062336 0.0152552226459 0.0101756382667 -0.000609472127897 0.0235902991512 0.0239640559469 -0.0117823951961 0.0172965303396 0.0268233534215 -0.00360270249491 -0.0352228362379 -0.0147552170924 0.0268024190362 -0.00908475199581 -0.0184247811724 0.0189647078514 0.0375706906031 -0.0262262551114 -0.0215602408695 0.000941985918741 -0.0373576336673 -0.0356044759974 -0.0782096620117 0.0436593654699 0.00440341969287 -0.00192211159239 0.00627980933392 -0.0200412962586 0.00325054222984 0.0182811875295 -0.0497677342002 0.0344989060291 -0.017398698771 0.0723594445735 0.0291320766472 0.0221868067913 0.00652419210279 0.00730794980856 0.00596583089126 -0.0320678232903
Cross-talk_edgelists1_P16104.edgelist__2062131190 -0.00607506082659 -0.0223173136557 -0.00928884249048 -0.0113316357934 0.00706772316646 -0.0217772286851 -0.0584113805422 -0.0111477170805 0.0323293084013 0.00904338717061 -0.0086967168775 -0.0204503303394 -0.0160057298157 -0.0136839718159 0.0124932308349 -0.0222625597047 -0.0372938111957 -0.0643654268767 -0.0144416257598 -0.0243382189739 -0.0310288124851 -0.0585829290961 0.0129528691094 0.00734670407006 -0.020672280541 0.0162821202539 -0.0334629782342 0.00334168531533 0.000133144635973 -0.00118466159412 -0.000490840225081 -0.0365618400808 0.0132677116032 0.0235191253679 0.0111292230722 -0.0259151799338 0.0287503899474 -0.0516292988988 0.00895384333229 0.0130269898966 -0.0127278740817 0.0226729059816 0.0174821356777 0.047222035804 0.0148721808468 0.0186111969607 -0.0290246952708 0.0490609117384 0.0308052993246 -0.0352939895155 -0.00448428992448 -0.0203965136981 -0.00639533258176 0.0240664681021 -0.0298590584259 0.0119104754413 0.0407293633159 0.0254692566481 -0.0331031355807 -0.0603756891297 -0.00928703705514 0.0199101362045 -0.0609532706439 -0.0269824097465 -0.0108520003518 0.0153085314669 -0.0243207754434 0.0419939769698 0.0106244348655 -0.00573291421668 -0.00276847729193 0.00316429743543 -0.0331277952396 0.0141323832795 0.0221927000675 0.0298825113236 0.0337392855436 -0.0429885368794 -0.00478919066622 0.00684387788143 0.00192279278833 0.0549014371022 0.0114107093375 -0.0212868821275 0.00759631614866 -0.0328161167979 -0.0041283830069 -0.0167163770114 0.0332799244872 0.0156204679183 0.00910667742469 -0.00102339658354 0.0233006135926 0.0255977729602 -0.0141200126881 0.0173096332832 0.0242844315778 -0.00179094405446 -0.0346025450687 -0.0121969479868 0.028208220311 -0.00872174790129 -0.0137759857545 0.0209942281778 0.0379773712318 -0.025310442916 -0.0204914836213 2.62914940582e-05 -0.0369701135371 -0.0322127153964 -0.0793838607413 0.0459915218609 0.00430586100889 1.01162253746e-05 0.0054307383086 -0.0185540468 0.00131610760997 0.0193763324725 -0.0489761283014 0.0334721628044 -0.0165464630949 0.069594944029 0.0279209224141 0.0223921070574 0.00716513355396 0.00758099757201 0.0102092195635 -0.0282428503436
Cross-talk_edgelists1_P16104.edgelist__300613444 -0.00120936847192 -0.0327035561204 0.000500974765081 -0.0158112278275 0.00418487896344 -0.0364393979045 -0.0636959392577 -0.0189869028649 0.0427648680551 0.0160739664487 -0.0103453202007 -0.0202116964917 -0.0281621186129 -0.00574990468366 0.0184248098605 -0.0176692539161 -0.0394526847771 -0.0825383359832 -0.0108853196039 -0.0307149620328 -0.033711054695 -0.0585654713879 0.00803906856371 0.00269548515124 -0.0277523399065 0.0172264244008 -0.039258575333 -0.00555874846343 -0.00888182389151 0.00133253946634 0.00906637473963 -0.0510976290596 0.0199367223707 0.0344460979104 0.0106338260978 -0.0342748589548 0.0301216778212 -0.0672389069306 0.0126231539595 0.0264676168029 -0.0165075607199 0.025666102214 0.0212926135531 0.0454084541915 0.0229973740477 0.0256720825232 -0.0319319899593 0.056002439482 0.0398363306719 -0.0500457350032 -0.0098567551135 -0.0211964180094 0.000705714803189 0.0187707645819 -0.0413698841751 0.00298277641247 0.0513952448964 0.0255335722717 -0.0413209965586 -0.0751308724284 -0.0219088301196 0.0249563548381 -0.0721322902079 -0.0188315679718 -0.0139694928657 0.016943497866 -0.0395173807628 0.0568042448057 0.011909099382 -0.0151107447621 -0.00238938682846 0.00471464463044 -0.039921878837 0.0177696882331 0.0156623478314 0.0329612850079 0.0366821705497 -0.0593163288598 0.00680327054579 -0.00436422022592 0.0176535320601 0.0652752572371 0.025352739862 -0.0271734034177 0.00260021823591 -0.0435823935882 -0.00206292555335 -0.0186689900002 0.0345621889989 0.0171705650199 0.0138492507893 -0.00321199099666 0.0303218203397 0.0309498419187 -0.0161536932158 0.00951211962716 0.033695191411 -0.00572299228848 -0.0389063617747 -0.00554974400023 0.0363622894511 -0.0130261624165 -0.0206001019105 0.0223872160007 0.0335005346486 -0.0274608367389 -0.0309923784142 -0.00642696445409 -0.0451826453209 -0.0394297247653 -0.0946779448007 0.0452754486219 0.00541647852931 -0.0183240974854 -0.00232000369579 -0.0215327714437 0.00148763816937 0.0236713856991 -0.0595219546729 0.0473937591804 -0.0174810533063 0.0838073532629 0.0298674783137 0.0176395570327 0.0127312552317 0.00635425407173 0.00531978466149 -0.0346440382834
Cross-talk_edgelists1_P16104.edgelist__204637183 0.0158074011561 -0.0337930283443 0.0249824974952 -0.0325965205515 0.0149921893275 -0.0660885006988 -0.070634982083 -0.0187419546502 0.0920933320054 0.0371422102783 -0.00943907391879 -0.0681303086291 -0.0422473523234 -0.00125791085884 0.024843106512 -0.0403374104894 -0.0919851937464 -0.120389545602 -0.0168692652837 -0.0513348796272 -0.0476329173959 -0.0724907562669 0.0343656581161 -0.0103629992477 -0.034451885415 0.035707612788 -0.0433621950714 -0.019937713697 0.017957178776 -0.00181307219568 -0.00387339466917 -0.0630052926551 0.00810045536075 0.0510372196191 0.00809448443553 -0.0477354694158 0.0608409146911 -0.114702409665 0.0397168630069 0.0436563155215 -0.0168942148199 0.0265401333038 0.0216363983844 0.0977270039065 0.00328805277656 0.0442072936068 -0.0024799785294 0.0527086479789 0.0438657227205 -0.071906311504 -0.00380700703577 -0.0207481241627 -0.00685745983252 0.00152107920232 -0.0773581942277 -0.0137466112044 0.0667236583041 0.00309360466365 -0.0438163853916 -0.0845145442124 -0.0356999344658 0.0629548476344 -0.0894534005118 -0.035517141223 -0.0233880401689 0.0509181316842 -0.0780223078494 0.0916027791266 -0.0136103977981 -0.0326927105364 -0.00367079089795 -0.0073661527796 -0.0706666784494 0.0201948521592 0.0251597071599 0.0543680448318 0.0346015111011 -0.109777994986 0.019712873219 -0.00926331359161 0.0126121794123 0.0930534637799 0.0396401873025 -0.0407546994102 -0.00177410863606 -0.0573843253577 0.0057718999451 -0.0477152062647 0.00289275237758 0.00564685859717 0.0238729092858 0.00565720655556 0.0248403214916 0.022541017837 -0.0163362135229 0.0103403680259 0.0348950663382 -0.0357299297882 -0.0299358057257 0.0107342989982 0.059600250729 -0.0460266306597 -0.0434139314706 -0.00357270729728 0.00213073253898 -0.0342507480153 -0.0244622323662 -0.0346550303511 -0.0422104970619 -0.061178051509 -0.117506417845 0.0630272473874 0.00362384439878 -0.0240669948648 0.00815327815404 -0.00928503135219 -0.0169847703905 0.0684247165918 -0.0630273157065 0.0858561734536 0.010437117956 0.0908003980959 0.0124940463741 0.0520493018308 0.0222355602906 0.00466978680509 0.00777693548506 -0.03001919035
Cross-talk_edgelists1_P16104.edgelist__204637185 0.0164859663845 -0.0327106657538 0.0240085307409 -0.028013027323 0.0138481870693 -0.0687258276656 -0.0780102506812 -0.0188744316942 0.0938576747264 0.0407337437583 -0.0125767498809 -0.0720947658909 -0.036610536876 -0.00282990553283 0.0200954928795 -0.0412313608187 -0.0975967438093 -0.126042024365 -0.0133308959526 -0.055046786155 -0.0529122572126 -0.0756012923749 0.0392678630804 -0.00926709028759 -0.0371883653237 0.0370321647663 -0.0439095219065 -0.0171831507635 0.0203391112986 -0.00629510292284 -0.00537049510915 -0.0638203459925 0.0106700310217 0.0525360895055 0.0126010655991 -0.0444110601342 0.0674160229308 -0.121924566371 0.0343629277112 0.0444514907098 -0.0177195565775 0.0254501929906 0.0244602101655 0.100439674554 0.000269467959047 0.0484425811363 0.000335453011628 0.0541471952664 0.043799804956 -0.0710924295709 -0.00423265867201 -0.020925463011 -0.00526810064912 0.000275512608433 -0.0769494473934 -0.0148208333662 0.0661577577037 0.00872412004641 -0.0491424220215 -0.0853933894208 -0.034806451095 0.0618289818189 -0.090371146532 -0.0406295256689 -0.021552737137 0.0541455498314 -0.0771465777819 0.0960646905005 -0.016520739533 -0.0359167935593 0.000255172373727 -0.00646890859519 -0.0749245080432 0.0164165528092 0.0301651335654 0.0573326153015 0.0346136464338 -0.112509246916 0.0160549651066 -0.0101523871334 0.0128689572614 0.0953118876662 0.0375469171143 -0.0448386043427 -0.000636334231656 -0.0582535306125 0.00420110513265 -0.0496121966945 0.00201774541555 0.00490798594962 0.0248715945054 0.00147873382749 0.0234037587985 0.0216294726623 -0.0193780791347 0.0121333788349 0.0305799409481 -0.0352974630826 -0.0301794726402 0.0112918803601 0.0640202795288 -0.0471721260941 -0.0382618744458 -0.00474007587348 0.00501600626324 -0.0306496907724 -0.0215549758037 -0.0318390021234 -0.0381485104029 -0.0593383846904 -0.124169802559 0.0688989227804 0.0068812434495 -0.0219621661319 0.00974939459203 -0.00726231037905 -0.0208303352286 0.0732201971945 -0.0644486420123 0.0871845566268 0.0101869421612 0.0887433706916 0.0113334289386 0.0559214066182 0.0219038041375 0.00296844796477 0.0124193350119 -0.0281105716214
Cross-talk_edgelists1_P16104.edgelist__208670459 -0.00230825095995 -0.0311577371322 0.00578746625355 -0.00977157967697 -0.00902329162428 -0.0533874488652 -0.0808032717822 -0.0164343777246 0.0648809048746 0.00801458888288 -0.0210778700899 -0.0296220516653 -0.0261146569205 -0.000465476087161 0.023665655105 -0.017349697583 -0.0584670310574 -0.0947752355465 -0.0121049064079 -0.0322625360319 -0.0467907427145 -0.0541390938285 0.0240441171585 -0.0135113506445 -0.0291733720473 0.0269478099155 -0.0397398865649 0.0096453851355 -0.001029271832 0.00292736015815 0.00191012636891 -0.04608818423 0.0190208056343 0.0395908871932 0.00746368709536 -0.036117588569 0.0448094623696 -0.0834779398782 0.0147831726156 0.0266166464259 -0.00669107898804 0.0279506935871 0.0258538621336 0.0629523481309 -0.0104076648796 0.0386674909719 -0.0107797816662 0.0522609429234 0.0400477483137 -0.0487877974021 -0.0136530947472 -0.0316828892184 -0.00989673423049 0.0188723934282 -0.0518426945034 -0.00384885145883 0.064179457458 0.0217652351629 -0.0592956909178 -0.0790818307017 -0.0170624877958 0.0330320836511 -0.0788650821362 -0.0310804412833 -0.0246306887961 0.0260828690038 -0.0550056798384 0.064694349521 -0.00238956743851 -0.0278728668179 -0.0110531783513 -0.00654869067616 -0.0514833499744 0.00748349849268 0.0232279773336 0.0473552877749 0.0360352763174 -0.0713543202728 -0.00100940003592 -0.0054650186295 0.0139929976514 0.0735774784781 0.0260109154374 -0.0248883441091 0.0162977389659 -0.0479906771631 0.000280782351703 -0.0408185379846 0.0283561604364 0.0122732951505 0.0140458854314 -0.0131143141937 0.019242453788 0.021960381485 -0.0188584714862 0.00460121920332 0.0184943766799 -0.00962723312633 -0.0367496763439 -0.0211232607253 0.0407909069077 -0.020985185468 -0.012031078954 0.00701376536329 0.0176909646086 -0.0288478047587 -0.0304587484071 -0.0122366694933 -0.0372173081019 -0.0403863214222 -0.10839715121 0.0290674562067 0.0103786503231 -0.0285225855852 -0.00437167103935 -0.0140922397841 -0.00551050144713 0.0370242156621 -0.0496037974621 0.0478308059807 -0.015569832941 0.067758312715 0.0313895284323 0.025344635468 0.0107163627233 0.0138055181596 -0.00107402786879 -0.0544480832427
Cross-talk_edgelists1_P16104.edgelist__208670458 -0.00236387773995 -0.0306335355687 0.004820935029 -0.012483522562 -0.00911033402995 -0.0534738658794 -0.0818539428126 -0.0128675019369 0.0648704253669 0.00484208496554 -0.0198065151261 -0.0275666722363 -0.0285937927796 0.00199002879007 0.0254522207438 -0.0157481755928 -0.0543701057988 -0.0909416531878 -0.0165198253401 -0.0269996139354 -0.0463999291616 -0.0532310151362 0.0220056884656 -0.0141425132751 -0.0285792854348 0.024723107727 -0.0414513374812 0.00998952559062 -0.00172913886075 0.00536155946819 0.00376305416492 -0.0429415452693 0.0159044571088 0.0374085466777 0.00578632495516 -0.0374002376837 0.042658123986 -0.0792843523834 0.0133262332196 0.0270767303716 -0.00531292247719 0.0287687181429 0.0222626174135 0.0607475366976 -0.0109063362969 0.0353327774044 -0.0096714991544 0.0533014733976 0.0387015508355 -0.0481873641589 -0.0125781370859 -0.0307896678049 -0.00986888499132 0.0226149014863 -0.0518583493873 -0.00156161774482 0.0634527613542 0.0205295312252 -0.0595993429888 -0.0791355672159 -0.0167855285607 0.0315878035451 -0.076146349577 -0.0303034594815 -0.0236397774092 0.0233282419587 -0.0561673969829 0.0621594709477 -0.000723505326148 -0.0277528689642 -0.0109411801677 -0.0108705540188 -0.0498504336325 0.00549434903743 0.0180715840709 0.0486093391332 0.0358412194265 -0.0677261115717 -0.00035821347514 -0.00609254752219 0.0170627192128 0.0715443301347 0.0224624397898 -0.020166037072 0.0180517065206 -0.0453037363144 0.000192487974086 -0.0390899015724 0.029294270889 0.0134071398892 0.0132561786865 -0.0145907686757 0.0192554959472 0.0204341165455 -0.0181361063317 0.00581030181742 0.0216290664726 -0.0104775292067 -0.0367872735951 -0.0247059169092 0.0386576607956 -0.0183846403712 -0.0140665722013 0.00748250746567 0.0168574756411 -0.0280453079114 -0.0292854139448 -0.0117717835653 -0.037104403334 -0.0413918978801 -0.105147016368 0.0270293980637 0.0120440294434 -0.0294896384834 -0.00200337224773 -0.0157866638037 -0.00346290380029 0.0353131991412 -0.0483562257806 0.0470493361354 -0.0181055637076 0.0673874405745 0.0324262847342 0.0225503497391 0.0114986450145 0.0135527646136 -0.00637249412414 -0.0577355905137
Cross-talk_edgelists1_P16104.edgelist__2062131062 -0.00297161067387 -0.0229574988729 -0.00668631294476 -0.0214043903564 0.0116899254333 -0.0239975232232 -0.0579707053091 -0.0118561997744 0.0371035906885 0.00758257959803 -0.00624504778534 -0.0202442089628 -0.0223815655336 -0.00850616036249 0.016662380392 -0.022837817802 -0.035151255184 -0.0651467064662 -0.0211002946432 -0.0234626265509 -0.0295078994573 -0.060961132603 0.0100808281984 0.00994721134858 -0.0164651238925 0.0161329042166 -0.0360328093437 0.00301381054201 -0.00505421430405 0.00726418217112 0.000504506282076 -0.0412065664838 0.00882150412404 0.0228141295956 0.00688757213356 -0.0306776892394 0.0295597426593 -0.0530917883984 0.0145359415162 0.0133965219304 -0.0119593500027 0.0240545964833 0.0175887746487 0.0512963662456 0.0151418360349 0.0173784390624 -0.02739358241 0.0512277837011 0.0334782597742 -0.0431097772505 -0.00238249680427 -0.0207443774811 -0.00852378474415 0.0261557500676 -0.0374323101714 0.0104284048263 0.0418067633041 0.0194427686344 -0.0311017404144 -0.0650182619159 -0.0155524852286 0.0252142289786 -0.0641521641186 -0.0247771273633 -0.0123327961857 0.0169967573103 -0.0276060621254 0.0425554756075 0.0132605687582 -0.00259592795711 -0.00486062127831 -0.000941194593906 -0.0310882635282 0.0177283088144 0.0126961488277 0.0319695434134 0.0370126752449 -0.0473730260772 0.000599840389831 0.00510347960517 0.000875845418445 0.057189405031 0.0146899371674 -0.0181425432675 0.00539077492431 -0.0343591068605 -0.000176250535463 -0.0171103558636 0.031782520303 0.0171030371151 0.0134154960646 0.000991444868435 0.0236436467385 0.0236846941656 -0.00901337204102 0.017280507101 0.0295709879803 -0.00338390933549 -0.0368865842798 -0.0149328915702 0.0277098573778 -0.0107625654034 -0.0206107259063 0.0185112334522 0.0358874877649 -0.0284023449889 -0.0224232925102 0.000593187121142 -0.0388644345637 -0.0382421742792 -0.0822370419545 0.044920191701 0.00282309390604 -0.00319689901413 0.00619796626935 -0.0194255150855 0.0029416986342 0.0205371246141 -0.0518088743307 0.036193803751 -0.0153824955757 0.0758632376258 0.0294245483154 0.0249880820297 0.00711072943107 0.00859191641419 0.00431582810623 -0.033378776695
Cross-talk_edgelists1_P16104.edgelist__204637269 0.0131388888445 -0.0351178300833 0.0228078843959 -0.0260690906517 0.00887976094548 -0.0709537325394 -0.0798360827778 -0.0136746160154 0.0955684200994 0.0333977620134 -0.0118104808581 -0.0683097509401 -0.0397256873548 0.00118238109696 0.0216452005718 -0.0378203376063 -0.095617168716 -0.124960156956 -0.0156506903004 -0.0501523225103 -0.0513009556702 -0.0701773767027 0.0373979804239 -0.0143384968064 -0.0382198437915 0.0366474779855 -0.0486575506095 -0.0127420393151 0.0193487306325 -0.00402913205991 -0.00101600730393 -0.0603244708784 0.0123025357856 0.0536565333605 0.010026790185 -0.0454352925132 0.0658733570682 -0.118008173403 0.0350114102309 0.0450464145813 -0.013595115593 0.0269561651762 0.0210715789227 0.100948706236 -0.00623488246596 0.0471335935539 0.00441275635135 0.0510157706615 0.0432702578338 -0.0696371656709 -0.00534147734288 -0.0235755323499 -0.00419911017109 0.0015870243577 -0.0766654775611 -0.0142993590728 0.0679453250819 0.00936364535508 -0.0523396015633 -0.0845846866391 -0.0340103392456 0.0636300684086 -0.0886629412749 -0.0444202681205 -0.0212270503731 0.0518317656991 -0.0809252694515 0.0934450985598 -0.0203247322102 -0.039588774754 -0.000522361889515 -0.00664486476619 -0.0765157900751 0.0111815779403 0.0285663062574 0.0573634158022 0.0370429349464 -0.11034284266 0.0156371361975 -0.0113943268079 0.0161252570937 0.0953112487083 0.0337798601748 -0.040263530316 0.00459740736655 -0.0564302729243 0.00469848437102 -0.0515915166054 0.00499099985297 0.00268197625077 0.0213580699471 -0.000468050661896 0.0215733445449 0.0193826103849 -0.0205725489317 0.00891976896673 0.0272996729514 -0.0369823634308 -0.0289804260912 0.00544012128375 0.0606888301804 -0.0464137519843 -0.0395737288387 -0.00866343310502 0.00256987827431 -0.0293535593165 -0.0228292816651 -0.033655324086 -0.0388897715935 -0.0608119595729 -0.119994576488 0.0595595225625 0.00894286857718 -0.0248113875444 0.0089230620901 -0.0104909919735 -0.0190374224247 0.0702055527862 -0.0599754736925 0.0854683752571 0.00767088269017 0.084830264644 0.0132060956676 0.0527525586741 0.0216207060896 0.00339458740616 0.00814450612026 -0.0346148892838
Cross-talk_edgelists1_P16104.edgelist__2062131064 -0.00480559371811 -0.0196007366093 -0.00769941891277 -0.0119605323167 0.00812894804403 -0.0179023134655 -0.0553443812699 -0.0158820866408 0.0332662095981 0.0104830686801 -0.00852272677834 -0.0202401959603 -0.0161661212665 -0.0107429169917 0.0107520829603 -0.0217670950141 -0.0332758909624 -0.0625609068998 -0.0161761538724 -0.0209616507137 -0.0261915232321 -0.0568841818188 0.011579516876 0.0133532836501 -0.0182790941825 0.0161895706052 -0.0344878730497 0.0015140477834 -0.0056558935903 0.00382313145591 -0.00219323333087 -0.0383550642457 0.00898457684421 0.0208635081404 0.0112361319459 -0.0242065292384 0.0281255078901 -0.0505560567336 0.0121345916497 0.0118406059753 -0.0153317711795 0.0214827570765 0.0181690741863 0.0449353938124 0.0167558448323 0.0151088275015 -0.0279760951775 0.0502207677678 0.0309475254367 -0.0367223069604 -0.00275006617552 -0.0157560494595 -0.0101447652892 0.0202091532493 -0.032795996006 0.0115836403233 0.0387145284829 0.0203007827762 -0.0296931785664 -0.058944810714 -0.0126847856944 0.021943251935 -0.0611725497459 -0.0255375644192 -0.00968162725413 0.016659051105 -0.0207508613821 0.0416141503624 0.0136670444959 -0.00193248586064 -0.00383994369102 0.00488010135346 -0.0317849628295 0.0178537657484 0.0173102637221 0.0281004506562 0.0333126120801 -0.0431780048779 -0.000294699017624 0.000621540405388 0.00199620738359 0.0509204827582 0.0140221259956 -0.0233696128042 0.00405772323055 -0.0355415346317 -0.00122223851005 -0.0143401838972 0.0325595396571 0.0189805653063 0.0115974705467 -0.00296835867422 0.0231870902935 0.0280135024472 -0.0141728340116 0.0174287002633 0.0269469962056 -0.000337060453603 -0.0331613221871 -0.0125869588727 0.0282396792567 -0.0116377891806 -0.0145684411151 0.0220384518616 0.0374151284174 -0.024983116093 -0.0186794752787 0.00157693154844 -0.035871678165 -0.0341020466627 -0.0791247157114 0.0466367460654 0.00223572477366 -0.000206704767022 0.00482536458211 -0.0172795518135 0.00606433355383 0.0169246908543 -0.0538504086435 0.0339316502213 -0.0160903563623 0.0740032422223 0.0317279881731 0.0217682957383 0.005536275051 0.0105910995543 0.0104242378979 -0.0290217863263
Cross-talk_edgelists1_P16104.edgelist__300613118 -0.00284078405405 -0.0321346434898 0.000119802342462 -0.0138768286311 0.00110378488898 -0.0361506338231 -0.0637561318332 -0.0160531876609 0.0371408089995 0.0172917725452 -0.0116303407704 -0.0188396321443 -0.0263119521717 -0.00721546302416 0.0178321767598 -0.0152283647164 -0.0368874205409 -0.0798071447228 -0.00683706090786 -0.0287791462781 -0.0354832019324 -0.0552867310388 0.00825348459849 -0.00120241048613 -0.0280798911782 0.0147545300258 -0.0354757805222 -0.00690153068198 -0.00523511453399 -0.00368621080582 0.00924324344045 -0.0469652174839 0.0221216943714 0.0354497914336 0.0109009468392 -0.0327429583828 0.0276904233532 -0.065210464344 0.00826844386756 0.0279727610053 -0.01603702499 0.0220649440505 0.0186852659764 0.0408991170781 0.0248722730737 0.0251951035378 -0.0323332475964 0.0536776583509 0.0349652781816 -0.0455710372355 -0.0105123126081 -0.021035690925 0.00574920659087 0.0191626435345 -0.0349680595765 0.0035861449682 0.0502723702895 0.0286779768981 -0.0431643851501 -0.0707030996148 -0.01798740569 0.0181402190938 -0.0669523256698 -0.0168551299721 -0.0126972009 0.0130650442692 -0.0396790954151 0.055212063981 0.0109385564657 -0.0177908659181 -8.28093449984e-05 0.00170980526933 -0.0388692134459 0.0124060638648 0.0181483631688 0.0315307060456 0.0312489158075 -0.0539034887084 0.00441272072619 -0.00171649861815 0.0210615708825 0.0605732360855 0.0218350783523 -0.0244217013408 0.0029195195197 -0.0406473642964 -0.00465921152915 -0.0162792203649 0.0344299535666 0.0147671641462 0.0113483671864 -0.00405480326819 0.0291441897862 0.0300313838358 -0.0174923068861 0.00919373180451 0.0315433755251 -0.00622031884268 -0.0375555224184 -0.00427287519727 0.0346804062969 -0.00977931836886 -0.0178877440547 0.0238048631166 0.0320475346941 -0.0248378762709 -0.0292950432215 -0.00815561417091 -0.0439580615078 -0.0340503275927 -0.0892757635031 0.0454838494438 0.00608953296406 -0.016809101125 -0.00124675281612 -0.0194012482118 -0.000211023891877 0.0231864972572 -0.0550281848659 0.0441476111966 -0.0180959249389 0.0756641891951 0.0265746307144 0.0140744146359 0.0140553398856 0.00268019770738 0.00330903919946 -0.0296140614498
Cross-talk_edgelists1_P16104.edgelist__2064005 0.0010934102798 -0.0173442232689 0.000428281957284 -0.011524610342 0.0135949637209 -0.0226103394691 -0.0374632852784 -0.00873007598732 0.0304271232869 0.00324253411964 -0.00291113010358 -0.0126893129865 -0.0177171842328 -0.00659707241825 0.0158122122604 -0.0214593423797 -0.0319133879883 -0.0467263300504 -0.0162170438229 -0.0246846824884 -0.0263269898216 -0.0506512881922 0.010237959147 0.00576951028779 -0.0131294298252 0.0119379343066 -0.0194138666349 0.000528600865177 0.00195711119367 0.00258953659795 0.000335087600563 -0.0249344667287 0.0104250155522 0.011461146442 0.00780756672611 -0.0221177153289 0.0233148384307 -0.0355121022523 0.00660934974439 0.01002779603 -0.00340215941625 0.0249257564678 0.0186933992164 0.0385904873588 0.0108700559608 0.0214639616066 -0.0268449863818 0.0379838086498 0.0316848780162 -0.0337509012648 -0.00514581613243 -0.0146245822044 -0.0105614137304 0.0211211116319 -0.0250976850678 0.0069600299799 0.0273261118148 0.0116951928607 -0.0193743950554 -0.0513783650739 -0.0108302587344 0.0128846503129 -0.0568136713867 -0.0202069805403 -0.0114113962045 0.0175872029421 -0.020321861213 0.0323928216738 0.0175158084104 0.0038396894067 -0.00519449037633 0.00440085978646 -0.018980646506 0.0163215052869 0.0113765061168 0.0199985109336 0.0318682630147 -0.0367627026779 -0.00594591535628 0.00764652408127 -0.00432030731879 0.0505048391808 0.00882987755592 -0.0161939357807 0.00174549754177 -0.0228096001582 -0.00131719280034 -0.0159834369219 0.0209774959034 0.00997545015915 0.0125019964762 0.00345771659964 0.026870780824 0.0190357388929 -0.00660509740867 0.0132961655368 0.0266819267002 -0.0020890437632 -0.0311841898199 -0.00574221851171 0.0257644780379 -0.00554867472134 -0.0107779635582 0.0165800425623 0.0344983700696 -0.0224045717956 -0.0232642897006 0.00202819851776 -0.0296663146998 -0.0221943366009 -0.0607018694282 0.0348888179287 0.00336169358343 -0.00839415154353 0.0027867427894 -0.0193967974545 0.000317696481943 0.0155928438263 -0.0348355172599 0.0282288842968 -0.00995677573623 0.0611367246934 0.0187663281769 0.023856439162 0.00190094233091 0.00787396436291 0.00492379202374 -0.0216368054306
Cross-talk_edgelists1_P16104.edgelist__300613367 -0.00255426016104 -0.0328838837865 -0.000478343131752 -0.0149021965585 0.00282516104302 -0.0364433604825 -0.0634388543798 -0.018008062616 0.0363001498793 0.0163996971678 -0.0115761092664 -0.0187505990533 -0.0264667563273 -0.00723383748638 0.0191930234432 -0.0163610487777 -0.0375763811171 -0.080516874258 -0.00821180317559 -0.0317661642163 -0.0358560699637 -0.0581663826555 0.00839817543913 0.00149513195668 -0.0272111625278 0.0154412539144 -0.0369346244261 -0.00555813327498 -0.00652203070266 -0.00228054645205 0.00947354720639 -0.0484578823671 0.0228479440058 0.0352953109624 0.0112028582288 -0.0328922753355 0.0288478220547 -0.0652332524104 0.00930432942031 0.0251103104425 -0.0157149598734 0.0233142381684 0.0202919943165 0.0436794079308 0.0237014261407 0.0258454319888 -0.0335300017281 0.0544883218993 0.0375336296856 -0.0485164053472 -0.0101430534851 -0.0219688573852 0.00390615473901 0.0195036249767 -0.0363044166671 0.00243115135735 0.049100934927 0.0288931121052 -0.0424928160251 -0.071909893038 -0.0188993216559 0.0201525611005 -0.0695468871189 -0.0181297372494 -0.0136939711603 0.0143509656232 -0.0380848580971 0.0552607037659 0.0119444478686 -0.0154969098346 -0.000758407304862 0.00439450130216 -0.0370417737535 0.0161534093204 0.0177206775573 0.0303273925383 0.0339263507797 -0.0560324032392 0.00297208984557 -0.0021080052081 0.0166793528479 0.0632999713666 0.0229881830247 -0.0266208907456 0.00170064577833 -0.0419617376423 -0.00355285016953 -0.0175687138315 0.0338665759856 0.0153163201092 0.0118251217064 -0.00352590850421 0.0302720036125 0.0303507592263 -0.0157911446627 0.00917706292655 0.031407837889 -0.00596430870688 -0.0391669607322 -0.00488724419847 0.0350201512088 -0.0102193615998 -0.0173362141608 0.0247539046354 0.0358407257258 -0.0249117929488 -0.0313958403255 -0.00618500949349 -0.0440473144076 -0.0347822425621 -0.0915218495897 0.0458237752318 0.00509856139044 -0.0159409778592 -0.00266499770805 -0.0200504752408 -0.000877679317325 0.0226349907794 -0.056220777233 0.0441197458921 -0.0176652313468 0.0790339865323 0.0272353296334 0.016623281009 0.0131097627538 0.00398522931417 0.00619521171653 -0.0308838036976
Cross-talk_edgelists1_P16104.edgelist__216104136 -0.00205085519701 -0.00442351933037 -0.00309456086584 0.000603026244789 -0.00128529819527 -0.00763090699911 -0.0144115516118 0.00543938683612 -0.000158475379327 -0.00105494580099 -0.0030196737498 -0.00464186232005 -0.00872682939683 -0.00110460844423 0.00254462419876 -0.00177924414831 -0.00802801868745 -0.00837301516107 -0.00622912283455 -0.002438957936 -0.00743604344981 -0.00679737702012 0.00652422010899 -0.00380193734808 -0.00606285301702 0.00113756582141 -0.00994080730847 0.000627785388912 0.00643994765622 -0.00763956563813 0.00617619976401 0.00585672365768 0.0060268103012 0.00423667340406 0.00316768991096 -0.00162847898901 0.00510735703366 -0.00026768519144 -0.00295028702489 0.00239831954241 0.00362025972988 0.00448504462838 -0.00308516435325 0.0149693670017 -5.92821784916e-05 0.0021455298577 -0.00326998292335 0.00793044481959 0.00201016531459 -0.00542082531112 -0.00142251261111 -0.00336551746087 0.00364924993898 0.00422733090818 -0.00120027110513 0.000704827053206 0.000959323985236 0.00851803326181 -0.00872159004211 -0.00567916567836 0.00236877852253 0.000290825364313 -0.00523703172803 -0.0152192850198 0.00352049964879 -0.00143500736782 -0.00912841515882 0.00742264783808 9.71615081653e-05 -0.00528717839292 0.00472789577075 0.00165198982826 -0.00856026581356 -0.00326512674136 0.00459561443755 -0.00132523543601 0.00492091743009 -0.00276161171496 -0.00746846092599 -0.00331686623394 0.00503706240228 0.0117210458432 -0.0103666707873 -0.00262235184865 0.00422111499522 -0.00506538365568 -0.00250572924103 -0.00502299038427 0.00226179909493 -0.00221491299037 -0.00725636471595 -0.00445269314306 0.00832589662501 0.00503160006234 -0.00762061827949 0.00325245569859 0.00266294793359 -0.00946889072657 -0.00436838237303 -0.00197485022779 0.0068363552647 0.000541865426515 -0.00171197245696 0.00466124766639 0.0124423269715 0.000809906383178 -0.00357773740377 -0.00221370506499 -0.00178148530956 -0.000804879702628 -0.00545342745525 0.01000022356 0.00392782528486 0.00145599019847 0.00440370211644 -0.00417344112481 -0.00234824445631 0.00245983472892 -0.00398039525109 0.00803145766258 -0.00744538860662 0.00833779041256 0.00175123714975 0.000926095061004 0.00239331834018 -0.000960828270763 0.00422234540539 -0.00150593303676
Cross-talk_edgelists1_P16104.edgelist__216104134 -0.000156361975574 -0.00161709450185 0.00132578458371 -0.00242457538843 0.00370497722179 -0.0060954226314 -0.0195972983326 -0.00182373369379 0.0109621658921 0.00665029218154 -0.00384462691311 -0.0095937140286 -0.00891990640334 0.000786356627941 0.00520779564977 -0.00636888361935 -0.00816011641707 -0.0139502159187 -0.00916897272327 0.00134906009771 -0.0125727328871 -0.0157600955239 0.0076652733343 0.00273525036339 -0.00448602424668 0.00320913655949 -0.00534903843488 -0.00594362466862 0.00532468554697 -0.00423301170979 -0.00379709367241 0.000262495130301 -0.00470420492015 -0.000678059511951 0.00527820170724 -0.00689353288284 0.0085846225598 -0.0122921194083 -0.00140395121915 0.00849670411221 -0.00407092725592 0.00463804256703 0.00131743108588 0.0101302542857 0.00988688193528 0.00418182608805 -0.011504898646 0.0209666926946 0.00452848437375 -0.00608931841063 -0.0019442432427 0.004027172657 -0.00434091660593 0.00589280349336 -0.00562889548019 0.00592260821057 0.0108094281916 0.00136838547353 -0.0101472107427 -0.0180696014847 -0.00109493606059 -0.00337047329439 -0.0186016219003 -0.009276466045 0.000722707914455 0.00414232284363 -0.0099336618358 0.0135991365782 0.0134785015668 0.00109844787845 0.000271660940988 -0.00547476511981 -0.00927255515541 -0.000167547858187 0.00251781128879 0.00647778702634 0.00336536844926 -0.00719760278506 -0.0013730873886 -0.00414036061349 0.00858351029456 0.0106197951204 -0.0048265433205 -0.00336183773886 -0.000403110470091 -0.0109610089234 -0.00267433516482 -0.00123283160584 0.00701269321144 0.0067218384772 0.00142472051084 -0.0059999459024 0.0152098664216 0.0130505061575 -0.0100166467684 0.00954954672073 0.0174002535641 -0.00533563164728 -0.0109885452049 -0.00290478792574 0.0123862507088 0.000234776143251 -0.00126030455743 0.0134781199907 0.0115579733891 -0.00740662829152 -0.00278494613511 -0.00367774308792 -0.00813952274621 -0.00364205886477 -0.0198010743729 0.022971265018 0.00323972719655 -0.000726905252252 0.00793612535511 -0.00151268046881 0.00533179858966 0.00592259623642 -0.0180111644523 0.011171010722 -0.008847963331 0.0220176396625 0.00963610942875 0.00137402192091 0.0037833239351 0.00260218558833 -0.00405760242471 -0.00448359841747
Cross-talk_edgelists1_P16104.edgelist__300613363 -0.002099304302 -0.032195346696 0.000480750583977 -0.0167715443656 0.0028390152646 -0.0344456732273 -0.0633748371952 -0.0204882277841 0.0395460315049 0.0175568660488 -0.0114082443594 -0.018314656735 -0.0274262009854 -0.00512133445591 0.0185002734485 -0.0152663550439 -0.0354250666818 -0.0816592308027 -0.00892595807506 -0.0289821452295 -0.0328460847626 -0.0552906915545 0.00719542102888 0.00367145612836 -0.0253795334138 0.0160611923784 -0.0371087684429 -0.00536490364798 -0.0119847755081 0.00230293258625 0.00812328167792 -0.0523291587763 0.019585637542 0.0344068120633 0.00925674369293 -0.0344944463245 0.0290218114055 -0.0677564561899 0.0130809962616 0.0263603355935 -0.0169642737601 0.0227319383495 0.0213544235698 0.0423408549146 0.024761486865 0.0249692387879 -0.0319160000987 0.05530983726 0.0374909389897 -0.049638794469 -0.00965799437836 -0.0210792862012 0.00190630159341 0.0178369567064 -0.0403659159617 0.00235419580713 0.0522588987702 0.0256585261252 -0.0420276145783 -0.0742600326027 -0.0226033729476 0.0230432960172 -0.0706159211695 -0.0154687191493 -0.0139097357086 0.0152826024652 -0.0379242524671 0.0559566324311 0.0128566887828 -0.0148150223706 -0.00271208956838 0.00293412271848 -0.0382015305638 0.0168666167717 0.0140223324166 0.0316260844369 0.0342232268969 -0.0569846680654 0.00820340528818 -0.00495959711926 0.0188446843198 0.0613947703137 0.0267658576901 -0.026097572841 0.00115286266165 -0.0446745937557 -0.00107619332682 -0.0168794358947 0.034542926188 0.01753717695 0.0148112050623 -0.00402153815542 0.0292086449751 0.0310107413679 -0.0156677983863 0.00805121613666 0.0323032199272 -0.00409526579149 -0.0394590872207 -0.00720399885904 0.034266813259 -0.0123372056987 -0.0192275235562 0.0230779776217 0.0319879962397 -0.0278618973015 -0.0306839807225 -0.00605691064681 -0.0449542645365 -0.0383888395237 -0.094518791352 0.0441611002066 0.0031280828407 -0.0183256417513 -0.00346412529637 -0.019117281107 0.00248579142083 0.0219928859068 -0.0600954388002 0.0449875076967 -0.0178933312252 0.0811793290611 0.0305753592298 0.015235297781 0.0119819114916 0.00595511276541 0.00302589791162 -0.0345969297923
Cross-talk_edgelists1_P16104.edgelist__2046379 0.0152438571677 -0.0326152243651 0.0244105495512 -0.0338334081961 0.0134290523295 -0.0677057170875 -0.0792753582022 -0.0158576749797 0.0996571784573 0.0325232337678 -0.0110204332533 -0.0682364951021 -0.0423385926655 0.00328296349783 0.0267478437163 -0.0396746314862 -0.0927468096571 -0.119838783251 -0.0218125045488 -0.0482193515636 -0.0533972167011 -0.0682461507552 0.0376550769433 -0.0126789238836 -0.0274183208655 0.0372488986967 -0.0386120815695 -0.0109065249729 0.0161158176072 0.00351077578463 -0.00857319588873 -0.0597541364841 0.00338929149854 0.0462578702718 0.00521491982675 -0.0512171052396 0.0656367061394 -0.118587718079 0.0396294694926 0.0430621425455 -0.00981299525925 0.0245219771085 0.0254909507265 0.103336351658 -0.00654139951803 0.0505757613906 0.00275882326865 0.052453953041 0.0417505541991 -0.0709645710886 -0.0040442848944 -0.0242738748368 -0.0116003576134 0.00505997435123 -0.0811640978791 -0.0133045735066 0.0720400192908 0.00149894373525 -0.0496328435838 -0.0891540324582 -0.0358892284068 0.0626714814987 -0.0940696594438 -0.0404937494812 -0.025632997692 0.0545614472108 -0.0801454314164 0.0902001051498 -0.0115121388153 -0.0296672712014 -0.00771835606013 -0.0164331674709 -0.0704742487287 0.0121182380244 0.0208707550274 0.0590232292722 0.0361413805388 -0.10896654773 0.0174904772014 -0.00603811975036 0.0100025456798 0.0930733370062 0.0374641452384 -0.0331467893972 0.00409508902313 -0.0582861872598 0.00986485766979 -0.0542321784555 0.000769248498338 0.00422934246516 0.0284990974802 0.00133073502885 0.0236586102567 0.0179995698854 -0.0150106245752 0.00929622879318 0.0314940056331 -0.0363312132956 -0.0341444203098 -0.000973414766902 0.059058038917 -0.0460737930553 -0.0388865971139 -0.0103745572934 -0.00188923156488 -0.0401324130196 -0.0233951632732 -0.0317174960593 -0.0394782571238 -0.0602639962786 -0.123166764953 0.0590564572651 0.00495202558315 -0.0265250662329 0.0100489964659 -0.00405168992334 -0.0163880243365 0.0720459364155 -0.0603997466886 0.0819472843515 0.00873976560043 0.0837073588711 0.0148075030717 0.0540463577989 0.0190008945896 0.00672406089674 -0.002217447011 -0.0386580635261
Cross-talk_edgelists1_P16104.edgelist__2046376 0.0154074521103 -0.0323470057088 0.0235130093726 -0.0266891731215 0.0122609785758 -0.0694002622373 -0.080321539526 -0.0131782140317 0.0964339141335 0.0367773774945 -0.0117592057296 -0.0718991732491 -0.0382172635623 -0.00119817483106 0.0203464347204 -0.0409145360546 -0.0983412010329 -0.123313695192 -0.0164022761247 -0.0514145478872 -0.0532683972935 -0.0703953381495 0.0423354199156 -0.013123439758 -0.0341567696471 0.0366401122883 -0.0402747052056 -0.0126456290517 0.0218115152924 -0.00449795474664 -0.00627012425269 -0.0566653531776 0.00879046081432 0.0490517348849 0.010605462204 -0.0460035737072 0.0683020425162 -0.119526176846 0.0347554069012 0.0442909294673 -0.0107401489679 0.0247103334737 0.0233792722741 0.105413533365 -0.00665684483413 0.0517321157136 0.00547822742789 0.0499683172509 0.0410231505521 -0.0698644130358 -0.00420103711076 -0.0231296669351 -0.00650513584593 0.00150657771155 -0.0775569364695 -0.0141022747848 0.0663177786794 0.00839852132568 -0.0499678739746 -0.0840534237879 -0.0337783960858 0.062137360485 -0.0888134704104 -0.0463423791475 -0.0197719844125 0.0549670433892 -0.0793255446479 0.0932458317173 -0.0183292971924 -0.035310401049 -0.00122126890346 -0.00991897564381 -0.0757036574214 0.00915033742785 0.02741806249 0.0582609454702 0.03593460211 -0.108499526445 0.0135063481783 -0.00739696650167 0.0118673350662 0.0954556906197 0.0330011383298 -0.0388895403344 0.00445258424484 -0.0557377118551 0.00772937161154 -0.0537833413109 -0.00196924915404 0.00157833664811 0.0254826917579 6.33274737213e-05 0.0239108242095 0.0185431555978 -0.0194080543172 0.0103430555734 0.0266992979616 -0.0386584260767 -0.0308204804481 0.00522558487553 0.0622563183175 -0.0465452989696 -0.0360335349105 -0.0104990162986 0.00246913292046 -0.0331735017576 -0.0204680783541 -0.0313777405369 -0.034805209509 -0.0573582033893 -0.120198738628 0.064729988575 0.00667917605772 -0.0234770622379 0.0120654180407 -0.00580815039575 -0.021813325717 0.0747675230959 -0.0585539201275 0.0859207785023 0.00937981018797 0.0818598103693 0.0101882786091 0.0571816785128 0.0200291070755 0.00371817316461 0.00616667020534 -0.0303095653653
Cross-talk_edgelists1_P16104.edgelist__2062131348 -0.00287559105449 -0.0221796069693 -0.0107480342932 -0.0194466142982 0.0117829694812 -0.0217322908076 -0.0586638290967 -0.0120218877814 0.0299925407661 0.00819959637842 -0.00843321741559 -0.0190348733616 -0.0185614872857 -0.00904126844502 0.0144485423474 -0.0210184337089 -0.0330813380757 -0.0616343846279 -0.0189731610922 -0.0227209499571 -0.0303539768793 -0.0604451037943 0.0103208946862 0.0134879906795 -0.0169271973095 0.0153409346406 -0.035435758265 0.00471408119691 -0.00401735039694 0.00409620843961 -1.81972614623e-05 -0.0397030566154 0.00941841942923 0.0215180605384 0.00770971403524 -0.0257935679651 0.0299445576966 -0.0518042254927 0.0096566988255 0.0103186225252 -0.0126301053845 0.0225189781548 0.0168046076849 0.0479692031762 0.0151236525936 0.0151245121046 -0.0279301544651 0.0513051333837 0.0297103160743 -0.0384045562574 -0.00300255444433 -0.0196428111355 -0.00886318380279 0.026532791821 -0.0304627906132 0.0112746586674 0.0373231385435 0.021583882992 -0.0327893256077 -0.0615667604974 -0.0114827614868 0.0186814297257 -0.0602784202035 -0.0240144383694 -0.0118539017692 0.0133322172665 -0.0226635899661 0.0397176300841 0.0143665534311 -0.0027077089596 -0.000636917538941 -0.000452765529709 -0.0289385264207 0.0158073577498 0.0145410172907 0.0296227833855 0.0335427083607 -0.043570409928 -0.00229934973842 0.0046689306785 0.000206765668866 0.0514451625225 0.0108386732339 -0.019572037189 0.00418353273666 -0.0339197053441 -0.00390949274879 -0.0143926434685 0.0327103310265 0.0172271130972 0.0100451465363 -0.000840688789529 0.021194857343 0.0240940020553 -0.0111344550304 0.0196118909932 0.0270585920662 -0.000844986258796 -0.0346968409472 -0.0127153924134 0.0267374037233 -0.00822949848121 -0.0151147914917 0.0214207312092 0.0378250212941 -0.0255454684209 -0.0197837572279 0.00200511019544 -0.0359482544341 -0.0334417286462 -0.0799468899412 0.0458706800294 0.00509782168748 0.00152816024742 0.00646491102608 -0.0169156867279 0.00292526158903 0.0193677309102 -0.0503162464593 0.0313144641529 -0.016064863336 0.0715375630451 0.0285096814457 0.0225811870103 0.00672289988558 0.00629171655912 0.00804491800123 -0.0307453989184
Cross-talk_edgelists1_P16104.edgelist__300613368 -0.00204580589863 -0.0306028770283 0.000985420575099 -0.0159074137253 0.00292923288154 -0.0339963515455 -0.0610720506936 -0.0182939771829 0.0380603644465 0.0156805059606 -0.0106332981294 -0.0173636784977 -0.0272524297637 -0.00353620015085 0.0183841803311 -0.0152552181576 -0.0336367028898 -0.0770946368575 -0.0101874883154 -0.0268835918313 -0.0325911501714 -0.0553115609634 0.00670919567347 0.00370402208396 -0.0253136105436 0.0147605292233 -0.0372213481792 -0.00670992978849 -0.00941099599004 0.00148671719113 0.0087060933334 -0.0478421517515 0.0183857218362 0.03308211573 0.00985583000667 -0.0326681222234 0.0276228723648 -0.0628210469149 0.0106710626943 0.025730473322 -0.0168032945533 0.0220830549952 0.0186706281799 0.0406885210957 0.023918268038 0.0227574371467 -0.0316219759905 0.0540086656557 0.0360130094923 -0.0473330144637 -0.00961696888719 -0.018489450815 0.00205618848226 0.017967171967 -0.0372993929278 0.0029667224735 0.0483083790168 0.0234081866053 -0.0402677381145 -0.0701312872448 -0.0206793623927 0.0201490944518 -0.0682276293103 -0.0163361629737 -0.0129345404982 0.0145380076054 -0.0371926100093 0.053343151563 0.0136312657269 -0.0139740829057 -0.00172850476312 0.00309624191972 -0.0356007146516 0.0154753400878 0.0131061998462 0.0299947215909 0.0324384201252 -0.0541570295713 0.00660592034858 -0.00545830106629 0.0182805748856 0.0585444307487 0.0227044889803 -0.0238369546465 0.000442007290465 -0.041750303137 -0.0022833658981 -0.0155273563994 0.0340798891682 0.016398838451 0.0126015442324 -0.00447074031191 0.0293239698429 0.0302171752389 -0.0155935013401 0.0093101900337 0.0330926680139 -0.00536119197828 -0.0371848254332 -0.00636521136455 0.0336102808693 -0.011234937402 -0.0191155483148 0.024190521666 0.0326305042628 -0.0246373930547 -0.0295016249376 -0.00667254713231 -0.0435744194048 -0.0360521273022 -0.0884819930153 0.0439865097703 0.00482762601626 -0.0165640210866 -0.00229324274031 -0.0195360902497 0.00332152098417 0.0208859583363 -0.0569360206968 0.0433490490541 -0.0174114454671 0.0788490081738 0.0291262856086 0.014612060905 0.0125569740443 0.00506588710206 0.00285862299747 -0.0322374090153
